{"learner":{"attributes":{"best_iteration":"213","best_score":"0.7728568216309223","scikit_learn":"{\"_estimator_type\": \"regressor\"}"},"feature_names":[],"feature_types":[],"gradient_booster":{"model":{"cats":{"enc":[],"feature_segments":[],"sorted_idx":[]},"gbtree_model_param":{"num_parallel_tree":"1","num_trees":"314"},"iteration_indptr":[0,1,2,3,4,5,6,7,8,9,10,11,12,13,14,15,16,17,18,19,20,21,22,23,24,25,26,27,28,29,30,31,32,33,34,35,36,37,38,39,40,41,42,43,44,45,46,47,48,49,50,51,52,53,54,55,56,57,58,59,60,61,62,63,64,65,66,67,68,69,70,71,72,73,74,75,76,77,78,79,80,81,82,83,84,85,86,87,88,89,90,91,92,93,94,95,96,97,98,99,100,101,102,103,104,105,106,107,108,109,110,111,112,113,114,115,116,117,118,119,120,121,122,123,124,125,126,127,128,129,130,131,132,133,134,135,136,137,138,139,140,141,142,143,144,145,146,147,148,149,150,151,152,153,154,155,156,157,158,159,160,161,162,163,164,165,166,167,168,169,170,171,172,173,174,175,176,177,178,179,180,181,182,183,184,185,186,187,188,189,190,191,192,193,194,195,196,197,198,199,200,201,202,203,204,205,206,207,208,209,210,211,212,213,214,215,216,217,218,219,220,221,222,223,224,225,226,227,228,229,230,231,232,233,234,235,236,237,238,239,240,241,242,243,244,245,246,247,248,249,250,251,252,253,254,255,256,257,258,259,260,261,262,263,264,265,266,267,268,269,270,271,272,273,274,275,276,277,278,279,280,281,282,283,284,285,286,287,288,289,290,291,292,293,294,295,296,297,298,299,300,301,302,303,304,305,306,307,308,309,310,311,312,313,314],"tree_info":[0,0,0,0,0,0,0,0,0,0,0,0,0,0,0,0,0,0,0,0,0,0,0,0,0,0,0,0,0,0,0,0,0,0,0,0,0,0,0,0,0,0,0,0,0,0,0,0,0,0,0,0,0,0,0,0,0,0,0,0,0,0,0,0,0,0,0,0,0,0,0,0,0,0,0,0,0,0,0,0,0,0,0,0,0,0,0,0,0,0,0,0,0,0,0,0,0,0,0,0,0,0,0,0,0,0,0,0,0,0,0,0,0,0,0,0,0,0,0,0,0,0,0,0,0,0,0,0,0,0,0,0,0,0,0,0,0,0,0,0,0,0,0,0,0,0,0,0,0,0,0,0,0,0,0,0,0,0,0,0,0,0,0,0,0,0,0,0,0,0,0,0,0,0,0,0,0,0,0,0,0,0,0,0,0,0,0,0,0,0,0,0,0,0,0,0,0,0,0,0,0,0,0,0,0,0,0,0,0,0,0,0,0,0,0,0,0,0,0,0,0,0,0,0,0,0,0,0,0,0,0,0,0,0,0,0,0,0,0,0,0,0,0,0,0,0,0,0,0,0,0,0,0,0,0,0,0,0,0,0,0,0,0,0,0,0,0,0,0,0,0,0,0,0,0,0,0,0,0,0,0,0,0,0,0,0,0,0,0,0,0,0,0,0,0,0,0,0,0,0,0,0,0,0,0,0,0,0,0,0,0,0,0,0],"trees":[{"base_weights":[3.5280108E-3,-3.9467698E-1,5.253142E-1,-5.2604324E-1,2.2007658E-1,1.8326399E-1,1.1295489E0,-5.711728E-1,1.1657784E-1,6.946843E-2,8.637654E-1,-3.6554328E-1,3.215597E-1,5.921309E-1,1.3336378E0,-7.0927256E-1,-4.2069942E-1,-4.969693E-1,3.1387985E-1,-2.227654E-1,2.2570251E-1,1.6033748E-1,1.2184271E0,-1.5396325E-1,-6.6546607E-1,2.0283191E-1,7.322318E-1,3.4592602E-1,1.0591804E0,1.015847E0,1.5704595E0,-8.684539E-1,-5.9045416E-1,-5.67043E-1,-9.339429E-2,-7.8088784E-1,6.512702E-3,4.5162883E-1,-4.9046218E-1,1.8098564E-1,-5.612531E-1,7.515565E-1,1.2509511E-1,4.1728073E-1,-7.796738E-3,5.871393E-1,2.229479E-2,-5.162917E-1,1.9276763E-1,-9.38218E-1,-2.171276E-1,1.1836664E-1,5.141604E-1,7.9798865E-1,-1.4388411E-2,6.8693787E-1,6.0576793E-2,1.1853333E0,-0E0,8.576279E-1,1.3862941E0,1.6136974E0,-9.601318E-4,-1.0329481E-2,-1.647348E-2,-7.932326E-3,-1.680732E-2,-5.6659104E-3,-1.0730479E-2,-5.4103914E-3,3.5958437E-3,-2.8835982E-3,-1.711273E-2,-4.261222E-3,8.961558E-3,-1.4388411E-2,8.4593263E-4,6.228118E-3,-7.179451E-3,3.8171378E-3,-1.0804636E-2,2.1907534E-3,1.4660334E-2,-7.6009226E-3,3.7679342E-3,1.474808E-3,9.935155E-3,1.9665882E-3,1.222072E-2,1.071605E-3,-1.1481043E-2,-6.4037985E-4,5.5200937E-3,-9.7404625E-3,-1.7999744E-2,3.4319304E-3,-7.1530933E-3,7.112447E-3,4.5370113E-4,-2.8365315E-4,9.189399E-3,4.3389997E-3,1.3452431E-2,-8.318806E-3,1.3211319E-2,-1.0902387E-2,7.492242E-3,1.6471206E-3,1.9896701E-2,1.51026E-2,8.141286E-3,2.1946847E-2,9.190424E-3,1.0774462E-2,2.4663929E-2],"categories":[],"categories_nodes":[],"categories_segments":[],"categories_sizes":[],"default_left":[0,0,0,0,0,0,0,0,0,0,0,0,0,0,0,0,0,0,0,0,0,0,0,0,0,0,0,0,0,0,0,0,0,0,0,0,0,0,0,0,0,0,0,0,0,0,0,0,0,0,0,0,0,0,0,0,0,0,0,0,0,0,0,0,0,0,0,0,0,0,0,0,0,0,0,0,0,0,0,0,0,0,0,0,0,0,0,0,0,0,0,0,0,0,0,0,0,0,0,0,0,0,0,0,0,0,0,0,0,0,0,0,0,0,0],"id":0,"left_children":[1,3,5,7,9,11,13,15,17,19,21,23,25,27,29,31,33,35,37,39,41,43,45,47,49,51,53,55,57,59,61,63,65,67,69,71,-1,73,75,77,79,81,83,85,-1,87,-1,89,91,93,95,97,99,101,-1,103,105,107,-1,109,111,113,-1,-1,-1,-1,-1,-1,-1,-1,-1,-1,-1,-1,-1,-1,-1,-1,-1,-1,-1,-1,-1,-1,-1,-1,-1,-1,-1,-1,-1,-1,-1,-1,-1,-1,-1,-1,-1,-1,-1,-1,-1,-1,-1,-1,-1,-1,-1,-1,-1,-1,-1,-1,-1],"loss_changes":[2.58482E2,5.7047874E1,1.1112729E2,1.6920197E1,1.1992962E1,2.6203327E1,2.0841843E1,1.1088425E1,4.729422E0,4.65946E0,5.6961365E0,4.3181086E0,1.3311867E1,6.0134945E0,9.647003E0,5.0137634E0,1.2466091E1,2.698379E0,3.3773322E0,4.921401E0,3.4273288E0,1.5887167E0,2.0813026E0,5.2796025E0,3.3255033E0,5.578532E0,7.215004E0,3.4935403E0,2.4282799E0,2.8979683E0,5.7474823E0,4.470154E0,4.962368E0,4.8786316E0,7.306182E0,1.4128637E0,0E0,2.8359842E0,1.225755E0,2.6453893E0,2.645002E0,1.3080473E0,4.5524054E0,4.3748045E-1,0E0,4.7010303E-1,0E0,3.0634565E0,9.1124594E-1,8.4112835E-1,1.3989606E0,5.2818995E0,2.423748E0,2.8027725E0,0E0,4.230904E0,7.254864E0,2.3595848E0,0E0,1.7400398E0,4.8809814E-1,1.4123077E0,0E0,0E0,0E0,0E0,0E0,0E0,0E0,0E0,0E0,0E0,0E0,0E0,0E0,0E0,0E0,0E0,0E0,0E0,0E0,0E0,0E0,0E0,0E0,0E0,0E0,0E0,0E0,0E0,0E0,0E0,0E0,0E0,0E0,0E0,0E0,0E0,0E0,0E0,0E0,0E0,0E0,0E0,0E0,0E0,0E0,0E0,0E0,0E0,0E0,0E0,0E0,0E0,0E0],"parents":[2147483647,0,0,1,1,2,2,3,3,4,4,5,5,6,6,7,7,8,8,9,9,10,10,11,11,12,12,13,13,14,14,15,15,16,16,17,17,18,18,19,19,20,20,21,21,22,22,23,23,24,24,25,25,26,26,27,27,28,28,29,29,30,30,31,31,32,32,33,33,34,34,35,35,37,37,38,38,39,39,40,40,41,41,42,42,43,43,45,45,47,47,48,48,49,49,50,50,51,51,52,52,53,53,55,55,56,56,57,57,59,59,60,60,61,61],"right_children":[2,4,6,8,10,12,14,16,18,20,22,24,26,28,30,32,34,36,38,40,42,44,46,48,50,52,54,56,58,60,62,64,66,68,70,72,-1,74,76,78,80,82,84,86,-1,88,-1,90,92,94,96,98,100,102,-1,104,106,108,-1,110,112,114,-1,-1,-1,-1,-1,-1,-1,-1,-1,-1,-1,-1,-1,-1,-1,-1,-1,-1,-1,-1,-1,-1,-1,-1,-1,-1,-1,-1,-1,-1,-1,-1,-1,-1,-1,-1,-1,-1,-1,-1,-1,-1,-1,-1,-1,-1,-1,-1,-1,-1,-1,-1,-1],"split_conditions":[1E0,1.0858679E1,7.5833335E0,2.7E1,1.5375E1,3.375E0,1.5E1,6.2083335E0,1.1128478E1,6.5833335E0,8.125828E0,4.3194447E0,9.463601E0,9.463601E0,1.0375E1,5.4160256E0,5E0,6E0,1.882248E1,0E0,5.9305553E0,7.0710677E-1,3E0,-7E0,5E0,4.4E1,8.263889E0,8.458333E0,3E0,3.9E1,1.7430555E1,2.5881904E-1,5.75E0,0E0,-1.505778E0,-2.5881904E-1,6.512702E-3,5.0416665E0,2E0,6.0416665E0,2.2146697E0,1E0,2E0,1.3611111E1,-7.796738E-3,1.7111177E1,2.229479E-2,3E0,-1.2719202E1,6E0,6E0,1.0230673E1,3.9583333E0,3.9583333E0,-1.4388411E-2,7.875E0,4E0,9.142858E0,-0E0,2.4857143E1,7.5E1,-2.0621529E1,-9.601318E-4,-1.0329481E-2,-1.647348E-2,-7.932326E-3,-1.680732E-2,-5.6659104E-3,-1.0730479E-2,-5.4103914E-3,3.5958437E-3,-2.8835982E-3,-1.711273E-2,-4.261222E-3,8.961558E-3,-1.4388411E-2,8.4593263E-4,6.228118E-3,-7.179451E-3,3.8171378E-3,-1.0804636E-2,2.1907534E-3,1.4660334E-2,-7.6009226E-3,3.7679342E-3,1.474808E-3,9.935155E-3,1.9665882E-3,1.222072E-2,1.071605E-3,-1.1481043E-2,-6.4037985E-4,5.5200937E-3,-9.7404625E-3,-1.7999744E-2,3.4319304E-3,-7.1530933E-3,7.112447E-3,4.5370113E-4,-2.8365315E-4,9.189399E-3,4.3389997E-3,1.3452431E-2,-8.318806E-3,1.3211319E-2,-1.0902387E-2,7.492242E-3,1.6471206E-3,1.9896701E-2,1.51026E-2,8.141286E-3,2.1946847E-2,9.190424E-3,1.0774462E-2,2.4663929E-2],"split_indices":[8,38,26,20,26,26,16,26,30,26,13,28,14,14,26,33,23,21,33,25,28,3,23,25,19,21,28,28,19,23,28,3,26,25,38,3,0,26,1,26,33,1,31,28,0,38,0,16,38,16,19,33,26,26,0,26,25,31,0,31,25,38,0,0,0,0,0,0,0,0,0,0,0,0,0,0,0,0,0,0,0,0,0,0,0,0,0,0,0,0,0,0,0,0,0,0,0,0,0,0,0,0,0,0,0,0,0,0,0,0,0,0,0,0,0],"split_type":[0,0,0,0,0,0,0,0,0,0,0,0,0,0,0,0,0,0,0,0,0,0,0,0,0,0,0,0,0,0,0,0,0,0,0,0,0,0,0,0,0,0,0,0,0,0,0,0,0,0,0,0,0,0,0,0,0,0,0,0,0,0,0,0,0,0,0,0,0,0,0,0,0,0,0,0,0,0,0,0,0,0,0,0,0,0,0,0,0,0,0,0,0,0,0,0,0,0,0,0,0,0,0,0,0,0,0,0,0,0,0,0,0,0,0],"sum_hessian":[1.243E3,7.05E2,5.38E2,5.81E2,1.24E2,3.44E2,1.94E2,5.43E2,3.8E1,1.01E2,2.3E1,6.9E1,2.75E2,5.4E1,1.4E2,2.82E2,2.61E2,9E0,2.9E1,3.5E1,6.6E1,8E0,1.5E1,4.1E1,2.8E1,2.14E2,6.1E1,3.6E1,1.8E1,6.1E1,7.9E1,1.19E2,1.63E2,1.8E2,8.1E1,7E0,2E0,2.5E1,4E0,1.6E1,1.9E1,1E1,5.6E1,6E0,2E0,5E0,1E1,2E1,2.1E1,1.7E1,1.1E1,1.69E2,4.5E1,5.9E1,2E0,1.6E1,2E1,1.6E1,2E0,4.4E1,1.7E1,7.7E1,2E0,6.8E1,5.1E1,1.47E2,1.6E1,8E1,1E2,4.5E1,3.6E1,3E0,4E0,4E0,2.1E1,2E0,2E0,1.2E1,4E0,3E0,1.6E1,3E0,7E0,9E0,4.7E1,3E0,3E0,2E0,3E0,6E0,1.4E1,9E0,1.2E1,9E0,8E0,4E0,7E0,3.3E1,1.36E2,7E0,3.8E1,1E1,4.9E1,2E0,1.4E1,7E0,1.3E1,2E0,1.4E1,2.9E1,1.5E1,1.5E1,2E0,3E0,7.4E1],"tree_param":{"num_deleted":"0","num_feature":"39","num_nodes":"115","size_leaf_vector":"1"}},{"base_weights":[-1.1948872E-2,-3.838442E-1,4.905763E-1,-5.5077046E-1,1.0116183E-1,2.1532494E-1,1.2621353E0,-6.192707E-1,-1.6109456E-1,-1.1473903E-2,6.004402E-1,-3.4344032E-1,3.4177202E-1,4.500125E-1,1.3980285E0,-7.557607E-1,-4.5934057E-1,-4.1495493E-1,6.361863E-2,-2.4128014E-1,1.9434874E-1,2.835471E-1,1.1174787E0,-1.4788772E-1,-6.3413566E-1,2.0256144E-1,5.986669E-1,-5.153722E-1,7.8127766E-1,1.1575286E0,1.6940328E0,-6.6484594E-1,-1.0740381E0,-8.0179745E-1,-3.534545E-1,-5.434114E-1,1.3443785E-2,-7.1928644E-1,2.0353846E-1,5.0324604E-2,-4.2400408E-1,-6.7018664E-1,2.5840002E-1,-1.4726584E-1,8.407458E-1,8.071517E-3,1.2668558E0,-5.666039E-1,1.8635346E-1,-1.0307274E0,-3.892016E-1,3.0361673E-1,-4.1319966E-2,7.7474326E-2,6.9248015E-1,-2.2545706E-3,-1.3550884E-2,9.277569E-1,3.090221E-1,7.8033835E-1,1.4946278E0,2.8350655E-2,1.486786E0,-1.0322778E-2,2.4778005E-3,-1.6624663E-2,-2.2038042E-3,4.9841204E-3,-1.3628903E-2,5.760177E-3,-6.308207E-3,-2.819684E-3,-1.1274402E-2,-1.5302873E-2,-2.0699829E-4,8.303514E-3,-3.5172566E-3,-5.751653E-3,4.6800715E-3,-8.593848E-3,3.2551687E-3,-2.4000546E-3,-1.845608E-2,9.388376E-3,1.9901092E-3,-1.0562289E-2,9.0585963E-4,7.630507E-3,1.9845137E-2,2.407306E-2,1.2990575E-2,-1.4500292E-2,-2.5932253E-3,4.6377275E-3,-1.590045E-3,-8.25917E-3,-1.7690996E-2,-1.8269251E-3,-1.1499173E-2,3.9673606E-3,1.8996237E-2,-1.6604943E-2,6.455643E-4,4.3674163E-3,-1.20687215E-2,1.4788324E-2,7.964761E-3,1.0241392E-2,2.0638924E-2,1.0025296E-2,-1.3816992E-3,-6.0052313E-3,1.2989443E-2,-5.022926E-5,2.3826014E-2,2.320818E-2,1.2556812E-2],"categories":[],"categories_nodes":[],"categories_segments":[],"categories_sizes":[],"default_left":[0,0,0,0,0,0,0,0,0,0,0,0,0,0,0,0,0,0,0,0,0,0,0,0,0,0,0,0,0,0,0,0,0,0,0,0,0,0,0,0,0,0,0,0,0,0,0,0,0,0,0,0,0,0,0,0,0,0,0,0,0,0,0,0,0,0,0,0,0,0,0,0,0,0,0,0,0,0,0,0,0,0,0,0,0,0,0,0,0,0,0,0,0,0,0,0,0,0,0,0,0,0,0,0,0,0,0,0,0,0,0,0,0,0,0,0,0],"id":1,"left_children":[1,3,5,7,9,11,13,15,17,19,21,23,25,27,29,31,33,35,37,39,41,43,45,47,49,51,53,55,57,59,61,63,65,67,69,71,-1,73,75,77,79,81,83,85,87,-1,89,91,93,95,97,99,101,103,105,-1,-1,107,109,111,113,-1,115,-1,-1,-1,-1,-1,-1,-1,-1,-1,-1,-1,-1,-1,-1,-1,-1,-1,-1,-1,-1,-1,-1,-1,-1,-1,-1,-1,-1,-1,-1,-1,-1,-1,-1,-1,-1,-1,-1,-1,-1,-1,-1,-1,-1,-1,-1,-1,-1,-1,-1,-1,-1,-1,-1],"loss_changes":[2.3005298E2,5.7329712E1,1.1096732E2,1.396492E1,1.0239834E1,2.7366467E1,1.4767807E1,9.534073E0,4.5659056E0,7.0497427E0,5.260358E0,3.9785147E0,1.1182365E1,6.7704854E0,7.2416687E0,6.515152E0,7.3247795E0,6.5421143E0,4.703031E0,3.7858157E0,4.4129057E0,5.257622E0,6.507263E-1,6.159727E0,2.4968805E0,5.0840397E0,5.337551E0,6.585175E-1,8.6703396E-1,7.7585983E0,5.181885E-1,3.7346878E0,1.5240059E0,6.0538177E0,7.9744015E0,2.4355993E0,0E0,1.3211102E0,5.6770563E0,3.1777303E0,4.2324467E0,1.4040227E0,3.3164935E0,1.4989643E0,1.0931726E0,0E0,4.685955E-1,2.9311252E0,9.063331E-1,3.3829212E-1,1.7759504E0,5.237032E0,5.5158415E0,3.3899243E0,4.0928383E0,0E0,0E0,6.9006157E-1,7.082256E-1,3.4822369E0,4.928131E0,0E0,3.127327E-1,0E0,0E0,0E0,0E0,0E0,0E0,0E0,0E0,0E0,0E0,0E0,0E0,0E0,0E0,0E0,0E0,0E0,0E0,0E0,0E0,0E0,0E0,0E0,0E0,0E0,0E0,0E0,0E0,0E0,0E0,0E0,0E0,0E0,0E0,0E0,0E0,0E0,0E0,0E0,0E0,0E0,0E0,0E0,0E0,0E0,0E0,0E0,0E0,0E0,0E0,0E0,0E0,0E0,0E0],"parents":[2147483647,0,0,1,1,2,2,3,3,4,4,5,5,6,6,7,7,8,8,9,9,10,10,11,11,12,12,13,13,14,14,15,15,16,16,17,17,18,18,19,19,20,20,21,21,22,22,23,23,24,24,25,25,26,26,27,27,28,28,29,29,30,30,31,31,32,32,33,33,34,34,35,35,37,37,38,38,39,39,40,40,41,41,42,42,43,43,44,44,46,46,47,47,48,48,49,49,50,50,51,51,52,52,53,53,54,54,57,57,58,58,59,59,60,60,62,62],"right_children":[2,4,6,8,10,12,14,16,18,20,22,24,26,28,30,32,34,36,38,40,42,44,46,48,50,52,54,56,58,60,62,64,66,68,70,72,-1,74,76,78,80,82,84,86,88,-1,90,92,94,96,98,100,102,104,106,-1,-1,108,110,112,114,-1,116,-1,-1,-1,-1,-1,-1,-1,-1,-1,-1,-1,-1,-1,-1,-1,-1,-1,-1,-1,-1,-1,-1,-1,-1,-1,-1,-1,-1,-1,-1,-1,-1,-1,-1,-1,-1,-1,-1,-1,-1,-1,-1,-1,-1,-1,-1,-1,-1,-1,-1,-1,-1,-1,-1],"split_conditions":[1E0,1.3E1,1.5195287E1,1.0915004E1,2.334054E1,5.59098E0,6.1277013E0,6.2083335E0,-3E0,7.2916665E0,1.05E1,4.125E0,1.6E1,2E1,2.8357616E1,9E0,1.4285715E0,2.1238861E1,3.5833333E0,-2E0,5.6953645E-1,1.9458199E1,5.857143E0,7.6525277E-1,2.25E0,3.061011E0,4.375E0,1.2291667E1,2.2E1,1.9339079E1,5.101685E0,3.1E1,1.0717027E1,4.345238E0,1.1024347E1,1.5E1,1.3443785E-2,4.3388373E-1,1.3306585E1,1.2246469E-16,9.463601E0,3E0,1.3914269E1,1.4041667E1,8.660254E-1,8.071517E-3,2.8E1,-2.8E1,1E0,2.3046358E1,7.3882575E0,8.5E0,4.861111E0,3.7E1,1.6726376E1,-2.2545706E-3,-1.3550884E-2,9E0,3E0,1E0,-2.4724888E1,2.8350655E-2,2.9E1,-1.0322778E-2,2.4778005E-3,-1.6624663E-2,-2.2038042E-3,4.9841204E-3,-1.3628903E-2,5.760177E-3,-6.308207E-3,-2.819684E-3,-1.1274402E-2,-1.5302873E-2,-2.0699829E-4,8.303514E-3,-3.5172566E-3,-5.751653E-3,4.6800715E-3,-8.593848E-3,3.2551687E-3,-2.4000546E-3,-1.845608E-2,9.388376E-3,1.9901092E-3,-1.0562289E-2,9.0585963E-4,7.630507E-3,1.9845137E-2,2.407306E-2,1.2990575E-2,-1.4500292E-2,-2.5932253E-3,4.6377275E-3,-1.590045E-3,-8.25917E-3,-1.7690996E-2,-1.8269251E-3,-1.1499173E-2,3.9673606E-3,1.8996237E-2,-1.6604943E-2,6.455643E-4,4.3674163E-3,-1.20687215E-2,1.4788324E-2,7.964761E-3,1.0241392E-2,2.0638924E-2,1.0025296E-2,-1.3816992E-3,-6.0052313E-3,1.2989443E-2,-5.022926E-5,2.3826014E-2,2.320818E-2,1.2556812E-2],"split_indices":[8,16,27,15,27,27,14,26,24,26,34,28,16,21,13,18,31,30,26,25,13,30,31,37,26,37,26,26,25,27,37,2,15,29,27,2,0,5,27,3,14,1,27,26,3,0,16,25,3,13,14,26,28,23,15,0,0,18,16,23,38,0,25,0,0,0,0,0,0,0,0,0,0,0,0,0,0,0,0,0,0,0,0,0,0,0,0,0,0,0,0,0,0,0,0,0,0,0,0,0,0,0,0,0,0,0,0,0,0,0,0,0,0,0,0,0,0],"split_type":[0,0,0,0,0,0,0,0,0,0,0,0,0,0,0,0,0,0,0,0,0,0,0,0,0,0,0,0,0,0,0,0,0,0,0,0,0,0,0,0,0,0,0,0,0,0,0,0,0,0,0,0,0,0,0,0,0,0,0,0,0,0,0,0,0,0,0,0,0,0,0,0,0,0,0,0,0,0,0,0,0,0,0,0,0,0,0,0,0,0,0,0,0,0,0,0,0,0,0,0,0,0,0,0,0,0,0,0,0,0,0,0,0,0,0,0,0],"sum_hessian":[1.23E3,7.07E2,5.23E2,5.26E2,1.81E2,3.86E2,1.37E2,4.47E2,7.9E1,1.48E2,3.3E1,7.1E1,3.15E2,2E1,1.17E2,2.4E2,2.07E2,3.7E1,4.2E1,7E1,7.8E1,2.1E1,1.2E1,4.3E1,2.8E1,2.05E2,1.1E2,5E0,1.5E1,6.6E1,5.1E1,1.88E2,5.2E1,4.8E1,1.59E2,3.4E1,3E0,6E0,3.6E1,2.7E1,4.3E1,5E0,7.3E1,1.2E1,9E0,3E0,9E0,1.9E1,2.4E1,1E1,1.8E1,1.45E2,6E1,1.7E1,9.3E1,3E0,2E0,1.1E1,4E0,3.2E1,3.4E1,2.4E1,2.7E1,1.83E2,5E0,5E1,2E0,4E0,4.4E1,1.3E1,1.46E2,1.3E1,2.1E1,4E0,2E0,2E1,1.6E1,1E1,1.7E1,3.5E1,8E0,3E0,2E0,1.8E1,5.5E1,3E0,9E0,6E0,3E0,4E0,5E0,9E0,1E1,1.7E1,7E0,3E0,7E0,1.1E1,7E0,1.4E2,5E0,4E0,5.6E1,1.4E1,3E0,3.2E1,6.1E1,8E0,3E0,2E0,2E0,2E0,3E1,2E0,3.2E1,2.4E1,3E0],"tree_param":{"num_deleted":"0","num_feature":"39","num_nodes":"117","size_leaf_vector":"1"}},{"base_weights":[-2.2320641E-2,-3.882105E-1,4.8985013E-1,-5.164208E-1,1.23418055E-1,1.9569881E-1,1.125824E0,-6.0992527E-1,-1.4176388E-1,6.140904E-2,1.0026308E0,-4.5094055E-1,3.2837737E-1,5.7429373E-1,1.2844758E0,-7.5733554E-1,-4.4122824E-1,-5.305643E-1,-9.3010785E-3,-2.3187004E-2,6.8038595E-1,4.196251E-3,1.1700824E0,-1.016337E0,-3.1402075E-1,1.7361277E-1,5.139975E-1,1.0987824E0,3.0397004E-1,1.0181181E0,1.5658072E0,-6.819884E-1,-1.0095934E0,-5.8005196E-1,-1.646209E-1,-1.9792688E-1,-8.6439866E-1,-1.9191541E-1,2.7256897E-1,-8.1325877E-1,2.1328805E-2,8.5548407E-1,-1.1685722E-3,1.9968027E-2,8.424051E-3,-1.1568907E0,-3.884482E-3,-3.9356866E-1,3.4905073E-1,4.7282553E-1,4.454999E-2,3.3643508E-1,9.0237164E-1,1.4714797E-3,1.2799555E0,-1.3366774E-1,7.6846004E-1,7.981472E-1,1.313747E0,1.6097052E0,3.0814903E-3,-1.4262459E-2,-8.973438E-3,-1.2560447E-2,-1.9930791E-2,-2.4355515E-3,-1.0685393E-2,-1.3520261E-3,-1.928416E-2,-1.1179748E-2,1.4019633E-3,-3.3307304E-3,-1.6406516E-2,-6.6363774E-3,2.412612E-3,6.6610454E-3,-1.363499E-2,-1.681381E-2,-1.1522309E-3,4.521649E-3,-1.122882E-3,4.746255E-3,1.5908146E-2,-1.9346159E-2,-7.604295E-3,-8.794189E-4,-8.170673E-3,2.1901128E-3,6.448972E-3,-4.913177E-4,8.6149825E-3,2.3897782E-3,-3.8273123E-3,-8.199689E-5,7.904211E-3,1.6772866E-2,6.144416E-3,1.439191E-2,2.3843462E-2,-6.585754E-3,1.1809344E-2,-2.301624E-3,1.4341934E-2,1.3065044E-2,-9.20538E-4,2.078871E-2,9.099209E-3,2.5245508E-2,1.1114829E-2],"categories":[],"categories_nodes":[],"categories_segments":[],"categories_sizes":[],"default_left":[0,0,0,0,0,0,0,0,0,0,0,0,0,0,0,0,0,0,0,0,0,0,0,0,0,0,0,0,0,0,0,0,0,0,0,0,0,0,0,0,0,0,0,0,0,0,0,0,0,0,0,0,0,0,0,0,0,0,0,0,0,0,0,0,0,0,0,0,0,0,0,0,0,0,0,0,0,0,0,0,0,0,0,0,0,0,0,0,0,0,0,0,0,0,0,0,0,0,0,0,0,0,0,0,0,0,0,0,0],"id":2,"left_children":[1,3,5,7,9,11,13,15,17,19,21,23,25,27,29,31,33,35,37,39,41,-1,43,45,47,49,51,53,55,57,59,61,63,65,67,69,71,73,75,77,79,81,-1,-1,-1,83,-1,85,87,89,91,93,95,-1,97,99,101,103,105,107,-1,-1,-1,-1,-1,-1,-1,-1,-1,-1,-1,-1,-1,-1,-1,-1,-1,-1,-1,-1,-1,-1,-1,-1,-1,-1,-1,-1,-1,-1,-1,-1,-1,-1,-1,-1,-1,-1,-1,-1,-1,-1,-1,-1,-1,-1,-1,-1,-1],"loss_changes":[2.3274474E2,4.757586E1,9.663378E1,2.0220276E1,7.8485456E0,3.04823E1,1.3844696E1,1.1299164E1,5.970475E0,7.1882977E0,9.137945E-1,4.457453E0,8.381231E0,5.0796785E0,8.552948E0,4.2563477E0,8.266945E0,3.1371908E0,4.5260544E0,4.286337E0,2.2629943E0,0E0,2.6683903E-1,1.0036011E0,2.6818385E0,6.200282E0,8.992512E0,2.13453E0,5.266697E0,3.694603E0,3.3568268E0,3.9503403E0,2.3858414E0,7.8838615E0,6.0103664E0,2.5397422E0,1.9491348E0,4.777394E0,7.1696577E0,1.3698025E0,3.1076472E0,1.255662E0,0E0,0E0,0E0,4.035349E-1,0E0,2.2066298E0,3.013897E-2,2.5254917E0,3.9195495E0,6.052636E0,4.107853E0,0E0,1.5188026E-1,3.952216E0,2.2761436E0,2.5407257E0,8.833885E-1,2.9817963E0,0E0,0E0,0E0,0E0,0E0,0E0,0E0,0E0,0E0,0E0,0E0,0E0,0E0,0E0,0E0,0E0,0E0,0E0,0E0,0E0,0E0,0E0,0E0,0E0,0E0,0E0,0E0,0E0,0E0,0E0,0E0,0E0,0E0,0E0,0E0,0E0,0E0,0E0,0E0,0E0,0E0,0E0,0E0,0E0,0E0,0E0,0E0,0E0,0E0],"parents":[2147483647,0,0,1,1,2,2,3,3,4,4,5,5,6,6,7,7,8,8,9,9,10,10,11,11,12,12,13,13,14,14,15,15,16,16,17,17,18,18,19,19,20,20,22,22,23,23,24,24,25,25,26,26,27,27,28,28,29,29,30,30,31,31,32,32,33,33,34,34,35,35,36,36,37,37,38,38,39,39,40,40,41,41,45,45,47,47,48,48,49,49,50,50,51,51,52,52,54,54,55,55,56,56,57,57,58,58,59,59],"right_children":[2,4,6,8,10,12,14,16,18,20,22,24,26,28,30,32,34,36,38,40,42,-1,44,46,48,50,52,54,56,58,60,62,64,66,68,70,72,74,76,78,80,82,-1,-1,-1,84,-1,86,88,90,92,94,96,-1,98,100,102,104,106,108,-1,-1,-1,-1,-1,-1,-1,-1,-1,-1,-1,-1,-1,-1,-1,-1,-1,-1,-1,-1,-1,-1,-1,-1,-1,-1,-1,-1,-1,-1,-1,-1,-1,-1,-1,-1,-1,-1,-1,-1,-1,-1,-1,-1,-1,-1,-1,-1,-1],"split_conditions":[1E0,9.426901E0,1.429902E1,1.4E1,8.7E1,5.5298924E0,1.1E1,6.2083335E0,8.023065E0,1.7041666E1,1.4166667E1,2.0416667E0,1.0148088E1,6.702381E0,1.909454E1,9.642805E0,5E0,1.6E1,2.7E1,4.9668875E-1,1E1,4.196251E-3,1.6E1,9E0,1.9E1,7E0,2.25E1,5.029762E0,3.4E1,2.8357616E1,1.24E2,2.4583333E0,4E0,1E1,1.2E1,1.1E1,1E0,4E0,1.882248E1,7.818315E-1,-6E0,1.1597222E1,-1.1685722E-3,1.9968027E-2,8.424051E-3,6E0,-3.884482E-3,4E0,1.1E1,3.5E0,2.7E1,6.6527777E0,2.2E1,1.4714797E-3,-1.2719202E1,4E1,1.6E1,9.2E1,1.8E1,7.818315E-1,3.0814903E-3,-1.4262459E-2,-8.973438E-3,-1.2560447E-2,-1.9930791E-2,-2.4355515E-3,-1.0685393E-2,-1.3520261E-3,-1.928416E-2,-1.1179748E-2,1.4019633E-3,-3.3307304E-3,-1.6406516E-2,-6.6363774E-3,2.412612E-3,6.6610454E-3,-1.363499E-2,-1.681381E-2,-1.1522309E-3,4.521649E-3,-1.122882E-3,4.746255E-3,1.5908146E-2,-1.9346159E-2,-7.604295E-3,-8.794189E-4,-8.170673E-3,2.1901128E-3,6.448972E-3,-4.913177E-4,8.6149825E-3,2.3897782E-3,-3.8273123E-3,-8.199689E-5,7.904211E-3,1.6772866E-2,6.144416E-3,1.439191E-2,2.3843462E-2,-6.585754E-3,1.1809344E-2,-2.301624E-3,1.4341934E-2,1.3065044E-2,-9.20538E-4,2.078871E-2,9.099209E-3,2.5245508E-2,1.1114829E-2],"split_indices":[8,38,27,20,18,27,16,26,27,26,26,26,27,29,27,27,16,2,20,13,22,0,31,24,25,22,34,29,20,13,20,26,20,2,20,2,21,23,33,5,25,28,0,0,0,0,0,16,20,28,23,28,21,0,38,21,23,23,19,5,0,0,0,0,0,0,0,0,0,0,0,0,0,0,0,0,0,0,0,0,0,0,0,0,0,0,0,0,0,0,0,0,0,0,0,0,0,0,0,0,0,0,0,0,0,0,0,0,0],"split_type":[0,0,0,0,0,0,0,0,0,0,0,0,0,0,0,0,0,0,0,0,0,0,0,0,0,0,0,0,0,0,0,0,0,0,0,0,0,0,0,0,0,0,0,0,0,0,0,0,0,0,0,0,0,0,0,0,0,0,0,0,0,0,0,0,0,0,0,0,0,0,0,0,0,0,0,0,0,0,0,0,0,0,0,0,0,0,0,0,0,0,0,0,0,0,0,0,0,0,0,0,0,0,0,0,0,0,0,0,0],"sum_hessian":[1.241E3,7.24E2,5.17E2,5.79E2,1.45E2,3.54E2,1.63E2,4.63E2,1.16E2,1.36E2,9E0,6E1,2.94E2,3.7E1,1.26E2,2.46E2,2.17E2,2.9E1,8.7E1,1.2E2,1.6E1,2E0,7E0,1.1E1,4.9E1,1.61E2,1.33E2,1.2E1,2.5E1,6.6E1,6E1,1.91E2,5.5E1,1.44E2,7.3E1,1.5E1,1.4E1,5.3E1,3.4E1,6E0,1.14E2,1.3E1,3E0,5E0,2E0,9E0,2E0,4.4E1,5E0,4.8E1,1.13E2,9.2E1,4.1E1,2E0,1E1,1.3E1,1.2E1,3.9E1,2.7E1,5.8E1,2E0,4.4E1,1.47E2,3.7E1,1.8E1,3.5E1,1.09E2,6.9E1,4E0,5E0,1E1,4E0,1E1,3.1E1,2.2E1,3E1,4E0,4E0,2E0,2.9E1,8.5E1,4E0,9E0,7E0,2E0,1.4E1,3E1,2E0,3E0,8E0,4E1,8.2E1,3.1E1,3.3E1,5.9E1,2.8E1,1.3E1,6E0,4E0,1E1,3E0,2E0,1E1,3.6E1,3E0,2.4E1,3E0,5.3E1,5E0],"tree_param":{"num_deleted":"0","num_feature":"39","num_nodes":"109","size_leaf_vector":"1"}},{"base_weights":[-6.0612396E-3,-3.8687766E-1,5.2160895E-1,-6.0398185E-1,-1.6850303E-1,2.1930006E-1,1.1575733E0,-6.582626E-1,-2.3489015E-1,-3.1330943E-1,2.8782165E-1,-3.242184E-1,3.439437E-1,8.7480634E-1,1.5632566E0,-6.846513E-1,6.8961866E-3,2.1853495E-1,-4.7025743E-1,-6.948843E-1,-2.074879E-1,1.4874749E-1,7.9980785E-1,-8.121406E-1,-2.0841773E-1,2.5982347E-1,6.6609055E-1,4.0983176E-1,1.1193742E0,1.3761058E0,1.890224E0,-7.309441E-1,-3.103171E-1,1.52647495E-2,-2.2932597E-1,-2.650015E-1,5.122225E-1,4.581763E-1,-6.15451E-1,-9.4404745E-1,3.9644916E-2,-3.4320346E-1,1.2142679E-1,-7.961244E-1,2.6174214E-1,4.975493E-1,1.9677874E-2,-1.0494405E0,-2.625585E-1,-5.8427848E-2,-5.8070105E-1,5.983871E-1,1.9328058E-1,4.1511348E-1,9.487709E-1,-6.6869724E-1,5.992414E-1,8.569636E-1,1.3412944E0,1.4196569E0,9.545991E-3,2.979172E-2,1.5663901E-2,-9.697099E-3,-1.4691791E-2,2.0569607E-3,-1.0555618E-2,-6.05522E-5,-1.3941658E-2,1.7941458E-3,-6.9051133E-3,1.0423416E-2,-2.869597E-3,-0E0,1.2122561E-2,8.175669E-3,-1.0786773E-2,-1.581449E-2,-4.84777E-3,5.3798E-3,-8.458265E-3,7.201228E-4,-6.7027155E-3,-6.9547044E-3,3.3482332E-3,-2.8228336E-3,-1.4864894E-2,5.3938646E-3,-7.0968308E-3,1.110961E-2,-8.693361E-5,-7.4138525E-3,-1.7618313E-2,-9.834316E-3,2.4452358E-3,-5.226035E-3,2.4927608E-3,-1.4715719E-2,-2.8111886E-3,1.3784168E-3,1.2075131E-2,1.8700319E-3,7.945745E-3,-2.9791645E-3,8.841629E-3,1.6793264E-2,6.1808107E-3,-1.9758323E-3,-1.4136554E-2,3.2625715E-3,1.602281E-2,1.749075E-2,7.455994E-3,1.3943754E-2,2.3069907E-2,9.491496E-3,2.2052176E-2],"categories":[],"categories_nodes":[],"categories_segments":[],"categories_sizes":[],"default_left":[0,0,0,0,0,0,0,0,0,0,0,0,0,0,0,0,0,0,0,0,0,0,0,0,0,0,0,0,0,0,0,0,0,0,0,0,0,0,0,0,0,0,0,0,0,0,0,0,0,0,0,0,0,0,0,0,0,0,0,0,0,0,0,0,0,0,0,0,0,0,0,0,0,0,0,0,0,0,0,0,0,0,0,0,0,0,0,0,0,0,0,0,0,0,0,0,0,0,0,0,0,0,0,0,0,0,0,0,0,0,0,0,0,0,0,0,0],"id":3,"left_children":[1,3,5,7,9,11,13,15,17,19,21,23,25,27,29,31,33,35,37,39,41,43,45,47,49,51,53,55,57,59,61,63,65,-1,67,69,71,73,75,77,79,81,83,85,87,89,-1,91,93,95,97,99,101,103,105,107,109,111,113,115,-1,-1,-1,-1,-1,-1,-1,-1,-1,-1,-1,-1,-1,-1,-1,-1,-1,-1,-1,-1,-1,-1,-1,-1,-1,-1,-1,-1,-1,-1,-1,-1,-1,-1,-1,-1,-1,-1,-1,-1,-1,-1,-1,-1,-1,-1,-1,-1,-1,-1,-1,-1,-1,-1,-1,-1,-1],"loss_changes":[2.5097458E2,3.4306465E1,1.0045114E2,7.160614E0,2.3999905E1,2.4140486E1,1.8523605E1,5.591675E0,5.133238E0,1.100716E1,6.123442E0,3.6217046E0,7.712349E0,1.1122803E1,2.727768E0,5.111191E0,3.1406338E0,2.4233735E0,4.3951383E0,1.0953484E1,9.696235E0,7.4976707E0,2.4464483E0,1.4268274E0,2.9942896E0,5.095525E0,3.9561863E0,7.448957E0,3.1297073E0,9.1124725E-1,7.177963E-1,5.2803802E0,6.149333E0,0E0,1.6076041E0,5.3291035E-1,1.441056E0,6.881852E-1,3.5130758E0,2.8068428E0,3.0750875E0,6.254608E0,3.8213997E0,7.362995E-1,4.573489E0,1.5683734E0,0E0,2.16712E-1,8.308164E-1,2.6107633E0,2.2901497E0,3.8426304E0,4.4009104E0,3.5552392E0,2.2134266E0,6.926749E-1,5.2794695E0,3.1310825E0,1.9556999E0,1.1182022E0,0E0,0E0,0E0,0E0,0E0,0E0,0E0,0E0,0E0,0E0,0E0,0E0,0E0,0E0,0E0,0E0,0E0,0E0,0E0,0E0,0E0,0E0,0E0,0E0,0E0,0E0,0E0,0E0,0E0,0E0,0E0,0E0,0E0,0E0,0E0,0E0,0E0,0E0,0E0,0E0,0E0,0E0,0E0,0E0,0E0,0E0,0E0,0E0,0E0,0E0,0E0,0E0,0E0,0E0,0E0,0E0,0E0],"parents":[2147483647,0,0,1,1,2,2,3,3,4,4,5,5,6,6,7,7,8,8,9,9,10,10,11,11,12,12,13,13,14,14,15,15,16,16,17,17,18,18,19,19,20,20,21,21,22,22,23,23,24,24,25,25,26,26,27,27,28,28,29,29,30,30,31,31,32,32,34,34,35,35,36,36,37,37,38,38,39,39,40,40,41,41,42,42,43,43,44,44,45,45,47,47,48,48,49,49,50,50,51,51,52,52,53,53,54,54,55,55,56,56,57,57,58,58,59,59],"right_children":[2,4,6,8,10,12,14,16,18,20,22,24,26,28,30,32,34,36,38,40,42,44,46,48,50,52,54,56,58,60,62,64,66,-1,68,70,72,74,76,78,80,82,84,86,88,90,-1,92,94,96,98,100,102,104,106,108,110,112,114,116,-1,-1,-1,-1,-1,-1,-1,-1,-1,-1,-1,-1,-1,-1,-1,-1,-1,-1,-1,-1,-1,-1,-1,-1,-1,-1,-1,-1,-1,-1,-1,-1,-1,-1,-1,-1,-1,-1,-1,-1,-1,-1,-1,-1,-1,-1,-1,-1,-1,-1,-1,-1,-1,-1,-1,-1,-1],"split_conditions":[2.0258278E1,6.5833335E0,1.429902E1,6.7E0,1.21049385E1,3.375E0,2.8357616E1,3.2E1,-4E0,1.25E0,1.7041666E1,3.745287E0,9.463601E0,-1.3020518E1,2.23655E1,1.0840267E1,2.75E0,-1.3E1,7.895573E0,1.1E1,1.0915004E1,1.6076986E0,9E0,2E0,6.797619E0,5E0,1E0,9.75E0,7.1011906E0,1.07E2,2E1,7E0,3E0,1.52647495E-2,1.7E1,1E0,8E0,2.3E1,2.2146697E0,9E0,5E-1,5.714286E0,-1.4E1,6.4126983E0,1.0982142E1,4E0,1.9677874E-2,1E0,2.3785185E1,-1.3E1,8E0,9E0,3.3173847E1,1.2E1,1.6E1,7E0,9.463601E0,1.0627906E1,1.721644E1,1.471757E1,9.545991E-3,2.979172E-2,1.5663901E-2,-9.697099E-3,-1.4691791E-2,2.0569607E-3,-1.0555618E-2,-6.05522E-5,-1.3941658E-2,1.7941458E-3,-6.9051133E-3,1.0423416E-2,-2.869597E-3,-0E0,1.2122561E-2,8.175669E-3,-1.0786773E-2,-1.581449E-2,-4.84777E-3,5.3798E-3,-8.458265E-3,7.201228E-4,-6.7027155E-3,-6.9547044E-3,3.3482332E-3,-2.8228336E-3,-1.4864894E-2,5.3938646E-3,-7.0968308E-3,1.110961E-2,-8.693361E-5,-7.4138525E-3,-1.7618313E-2,-9.834316E-3,2.4452358E-3,-5.226035E-3,2.4927608E-3,-1.4715719E-2,-2.8111886E-3,1.3784168E-3,1.2075131E-2,1.8700319E-3,7.945745E-3,-2.9791645E-3,8.841629E-3,1.6793264E-2,6.1808107E-3,-1.9758323E-3,-1.4136554E-2,3.2625715E-3,1.602281E-2,1.749075E-2,7.455994E-3,1.3943754E-2,2.3069907E-2,9.491496E-3,2.2052176E-2],"split_indices":[13,26,27,38,38,26,13,20,25,34,26,27,14,38,27,15,34,25,38,17,15,15,34,19,29,20,19,34,29,21,19,21,25,0,23,23,20,2,33,21,34,29,25,14,29,23,0,20,15,25,21,21,15,2,21,2,14,33,27,27,0,0,0,0,0,0,0,0,0,0,0,0,0,0,0,0,0,0,0,0,0,0,0,0,0,0,0,0,0,0,0,0,0,0,0,0,0,0,0,0,0,0,0,0,0,0,0,0,0,0,0,0,0,0,0,0,0],"split_type":[0,0,0,0,0,0,0,0,0,0,0,0,0,0,0,0,0,0,0,0,0,0,0,0,0,0,0,0,0,0,0,0,0,0,0,0,0,0,0,0,0,0,0,0,0,0,0,0,0,0,0,0,0,0,0,0,0,0,0,0,0,0,0,0,0,0,0,0,0,0,0,0,0,0,0,0,0,0,0,0,0,0,0,0,0,0,0,0,0,0,0,0,0,0,0,0,0,0,0,0,0,0,0,0,0,0,0,0,0,0,0,0,0,0,0,0,0],"sum_hessian":[1.248E3,7.25E2,5.23E2,3.63E2,3.62E2,3.55E2,1.68E2,3.16E2,4.7E1,2.75E2,8.7E1,6.6E1,2.89E2,1E2,6.8E1,3.04E2,1.2E1,1.6E1,3.1E1,5.9E1,2.16E2,6.9E1,1.8E1,1.2E1,5.4E1,2.3E2,5.9E1,3.5E1,6.5E1,4.5E1,2.3E1,2.7E2,3.4E1,2E0,1E1,6E0,1E1,4E0,2.7E1,4.4E1,1.5E1,1.53E2,6.3E1,7E0,6.2E1,1.2E1,6E0,8E0,4E0,3.9E1,1.5E1,3.7E1,1.93E2,3.2E1,2.7E1,5E0,3E1,3.1E1,3.4E1,4.2E1,3E0,2E1,3E0,2.03E2,6.7E1,1.6E1,1.8E1,8E0,2E0,2E0,4E0,8E0,2E0,2E0,2E0,2E0,2.5E1,3.7E1,7E0,1E1,5E0,3.2E1,1.21E2,9E0,5.4E1,2E0,5E0,5.5E1,7E0,8E0,4E0,2E0,6E0,2E0,2E0,1.7E1,2.2E1,7E0,8E0,1.1E1,2.6E1,1.61E2,3.2E1,7E0,2.5E1,2E1,7E0,2E0,3E0,1.7E1,1.3E1,1.6E1,1.5E1,1.2E1,2.2E1,3E0,3.9E1],"tree_param":{"num_deleted":"0","num_feature":"39","num_nodes":"117","size_leaf_vector":"1"}},{"base_weights":[4.5006247E-3,-3.8795716E-1,5.230768E-1,-5.402735E-1,6.808164E-2,2.5467756E-1,1.2094953E0,-6.0533965E-1,-1.7459369E-1,-2.707108E-1,3.2024702E-1,1.725212E-2,5.841931E-1,6.236267E-1,1.3597072E0,-6.66345E-1,-3.5354182E-1,6.72709E-2,-4.406183E-1,-1.9554788E-2,-1.8749753E-1,-2.3301926E-1,4.4968423E-1,-4.4219515E-1,1.4445762E-1,2.7602857E-1,8.1452465E-1,-1.4825922E-1,8.1011474E-1,1.0265675E0,1.4926007E0,1.9919965E-1,-6.814592E-1,-5.3296024E-1,-1.1231068E-1,-3.7028515E-1,3.983383E-1,-5.8501226E-1,1.8854418E-1,-6.5684056E-1,3.114097E-2,6.03754E-1,-5.458291E-1,1.425443E-1,6.2288284E-1,-2.8838998E-1,-9.2016E-1,4.074113E-1,3.767364E-2,-6.372258E-1,3.8421088E-1,8.618964E-1,-1.8598354E-1,-1.5722062E-2,3.570353E-1,1.0039126E0,1.5871236E-1,6.410822E-3,1.0942825E0,1.5864013E0,6.7318547E-1,1.3972256E-2,-3.279706E-3,-1.1884769E-2,-8.62712E-3,-8.92546E-3,5.569143E-3,-1.6358381E-2,2.319798E-4,-7.857436E-3,1.0457427E-2,-7.506713E-4,1.504991E-2,-3.1283284E-3,-1.2618154E-2,-3.6953639E-3,7.754443E-3,1.7452858E-3,-1.2447971E-2,5.9096725E-3,-2.8171765E-3,1.3763817E-2,4.18576E-3,-1.6259022E-2,-3.004549E-3,-2.6863352E-3,4.967019E-3,5.855406E-3,1.5554525E-2,-1.1436555E-2,-1.5049287E-3,-7.779376E-4,-1.64245E-2,-1.5540258E-3,7.178994E-3,7.7034845E-3,-2.8734596E-4,-2.8579896E-5,-1.2884809E-2,6.5642586E-3,-1.4475975E-2,1.0888491E-2,1.8220482E-2,-1.2101482E-2,6.779926E-3,1.4827648E-3,7.857188E-3,8.727488E-3,1.9998409E-2,1.0686416E-2,-6.0508572E-3,1.7362604E-2,8.62819E-3,2.4579674E-2,1.1593831E-2,3.381965E-3,2.0913187E-2],"categories":[],"categories_nodes":[],"categories_segments":[],"categories_sizes":[],"default_left":[0,0,0,0,0,0,0,0,0,0,0,0,0,0,0,0,0,0,0,0,0,0,0,0,0,0,0,0,0,0,0,0,0,0,0,0,0,0,0,0,0,0,0,0,0,0,0,0,0,0,0,0,0,0,0,0,0,0,0,0,0,0,0,0,0,0,0,0,0,0,0,0,0,0,0,0,0,0,0,0,0,0,0,0,0,0,0,0,0,0,0,0,0,0,0,0,0,0,0,0,0,0,0,0,0,0,0,0,0,0,0,0,0,0,0,0,0],"id":4,"left_children":[1,3,5,7,9,11,13,15,17,19,21,23,25,27,29,31,33,35,37,-1,39,41,43,45,47,49,51,53,55,57,59,61,63,65,67,69,71,73,75,77,79,81,83,85,87,89,91,93,95,97,99,101,103,-1,105,107,109,-1,111,113,115,-1,-1,-1,-1,-1,-1,-1,-1,-1,-1,-1,-1,-1,-1,-1,-1,-1,-1,-1,-1,-1,-1,-1,-1,-1,-1,-1,-1,-1,-1,-1,-1,-1,-1,-1,-1,-1,-1,-1,-1,-1,-1,-1,-1,-1,-1,-1,-1,-1,-1,-1,-1,-1,-1,-1,-1],"loss_changes":[2.5155624E2,4.8908638E1,9.78775E1,1.2459152E1,1.5124524E1,2.9968153E1,1.2633514E1,6.7052917E0,5.213013E0,6.292788E0,7.3319693E0,1.3079335E1,1.1225349E1,4.627493E0,4.3541565E0,4.7949524E0,3.7682037E0,6.231725E0,3.5725927E0,0E0,7.2759724E0,5.2660203E0,4.3060226E0,3.3722916E0,4.897979E0,6.9762216E0,4.450653E0,3.1772394E0,3.0813313E0,1.1304283E0,5.770996E0,2.1263614E0,3.8702393E0,2.9560318E0,4.8745575E0,3.2060807E0,6.7188063E0,2.897892E0,1.1484332E0,3.0940294E0,3.900349E0,3.7260723E-1,2.5232062E0,1.88729E0,4.7811527E0,3.2617369E0,1.6597843E0,1.8806391E0,3.4237823E0,1.0128095E0,4.6885366E0,3.6603546E0,1.9822707E0,0E0,1.3674384E-1,2.2268353E0,2.1822376E0,0E0,6.142235E-1,2.4123383E0,2.8286238E0,0E0,0E0,0E0,0E0,0E0,0E0,0E0,0E0,0E0,0E0,0E0,0E0,0E0,0E0,0E0,0E0,0E0,0E0,0E0,0E0,0E0,0E0,0E0,0E0,0E0,0E0,0E0,0E0,0E0,0E0,0E0,0E0,0E0,0E0,0E0,0E0,0E0,0E0,0E0,0E0,0E0,0E0,0E0,0E0,0E0,0E0,0E0,0E0,0E0,0E0,0E0,0E0,0E0,0E0,0E0,0E0],"parents":[2147483647,0,0,1,1,2,2,3,3,4,4,5,5,6,6,7,7,8,8,9,9,10,10,11,11,12,12,13,13,14,14,15,15,16,16,17,17,18,18,20,20,21,21,22,22,23,23,24,24,25,25,26,26,27,27,28,28,29,29,30,30,31,31,32,32,33,33,34,34,35,35,36,36,37,37,38,38,39,39,40,40,41,41,42,42,43,43,44,44,45,45,46,46,47,47,48,48,49,49,50,50,51,51,52,52,54,54,55,55,56,56,58,58,59,59,60,60],"right_children":[2,4,6,8,10,12,14,16,18,20,22,24,26,28,30,32,34,36,38,-1,40,42,44,46,48,50,52,54,56,58,60,62,64,66,68,70,72,74,76,78,80,82,84,86,88,90,92,94,96,98,100,102,104,-1,106,108,110,-1,112,114,116,-1,-1,-1,-1,-1,-1,-1,-1,-1,-1,-1,-1,-1,-1,-1,-1,-1,-1,-1,-1,-1,-1,-1,-1,-1,-1,-1,-1,-1,-1,-1,-1,-1,-1,-1,-1,-1,-1,-1,-1,-1,-1,-1,-1,-1,-1,-1,-1,-1,-1,-1,-1,-1,-1,-1,-1],"split_conditions":[2.0258278E1,1.3E1,8.916667E0,1.0915004E1,1.2344614E1,1.0180882E1,1.2E1,2.2631755E0,8.25E0,1E0,2.5E0,4.9765754E0,-9.341745E0,3E0,1.721644E1,7.8063946E0,6.3333335E0,3E0,2.0851748E1,-1.9554788E-2,7.7850423E0,1.2246469E-16,6.714286E0,4.4583335E0,-4.3388373E-1,1.5428572E1,4E1,3E0,1.5E1,5.875E0,7.818315E-1,2.2334619E0,7.5364237E0,1.3944445E1,1E0,3.4E1,4.3388373E-1,1E1,8.305555E0,1E0,-2E0,1E0,1.0916667E1,2E0,1.475E1,3E0,1.5369557E1,3E0,4E0,1.0915004E1,1.2291667E1,6E0,4E0,-1.5722062E-2,2.4E1,1.6E1,3E0,6.410822E-3,6E1,9E1,3.4E1,1.3972256E-2,-3.279706E-3,-1.1884769E-2,-8.62712E-3,-8.92546E-3,5.569143E-3,-1.6358381E-2,2.319798E-4,-7.857436E-3,1.0457427E-2,-7.506713E-4,1.504991E-2,-3.1283284E-3,-1.2618154E-2,-3.6953639E-3,7.754443E-3,1.7452858E-3,-1.2447971E-2,5.9096725E-3,-2.8171765E-3,1.3763817E-2,4.18576E-3,-1.6259022E-2,-3.004549E-3,-2.6863352E-3,4.967019E-3,5.855406E-3,1.5554525E-2,-1.1436555E-2,-1.5049287E-3,-7.779376E-4,-1.64245E-2,-1.5540258E-3,7.178994E-3,7.7034845E-3,-2.8734596E-4,-2.8579896E-5,-1.2884809E-2,6.5642586E-3,-1.4475975E-2,1.0888491E-2,1.8220482E-2,-1.2101482E-2,6.779926E-3,1.4827648E-3,7.857188E-3,8.727488E-3,1.9998409E-2,1.0686416E-2,-6.0508572E-3,1.7362604E-2,8.62819E-3,2.4579674E-2,1.1593831E-2,3.381965E-3,2.0913187E-2],"split_indices":[13,16,26,15,27,27,16,38,34,34,34,27,38,23,27,30,34,23,30,0,27,3,31,28,5,31,18,18,18,28,5,15,13,28,0,24,5,23,28,23,25,24,26,22,26,20,15,23,20,15,29,1,1,0,20,22,0,0,20,24,22,0,0,0,0,0,0,0,0,0,0,0,0,0,0,0,0,0,0,0,0,0,0,0,0,0,0,0,0,0,0,0,0,0,0,0,0,0,0,0,0,0,0,0,0,0,0,0,0,0,0,0,0,0,0,0,0],"split_type":[0,0,0,0,0,0,0,0,0,0,0,0,0,0,0,0,0,0,0,0,0,0,0,0,0,0,0,0,0,0,0,0,0,0,0,0,0,0,0,0,0,0,0,0,0,0,0,0,0,0,0,0,0,0,0,0,0,0,0,0,0,0,0,0,0,0,0,0,0,0,0,0,0,0,0,0,0,0,0,0,0,0,0,0,0,0,0,0,0,0,0,0,0,0,0,0,0,0,0,0,0,0,0,0,0,0,0,0,0,0,0,0,0,0,0,0,0],"sum_hessian":[1.235E3,7.03E2,5.32E2,5.27E2,1.76E2,3.83E2,1.49E2,4.47E2,8E1,7.5E1,1.01E2,2.23E2,1.6E2,3.1E1,1.18E2,3.59E2,8.8E1,4.2E1,3.8E1,5E0,7E1,1.9E1,8.2E1,4.8E1,1.75E2,6.9E1,9.1E1,6E0,2.5E1,3.5E1,8.3E1,6E0,3.53E2,5E1,3.8E1,1.8E1,2.4E1,3.1E1,7E0,2.2E1,4.8E1,5E0,1.4E1,3E1,5.2E1,3.7E1,1.1E1,5E1,1.25E2,7E0,6.2E1,8.7E1,4E0,2E0,4E0,1.9E1,6E0,4E0,3.1E1,7.4E1,9E0,2E0,4E0,1.71E2,1.82E2,4.7E1,3E0,4E0,3.4E1,1.6E1,2E0,1.4E1,1E1,1.3E1,1.8E1,3E0,4E0,4E0,1.8E1,1.8E1,3E1,2E0,3E0,5E0,9E0,1.1E1,1.9E1,3.4E1,1.8E1,1E1,2.7E1,2E0,9E0,6E0,4.4E1,1.3E1,1.12E2,2E0,5E0,6E1,2E0,6.4E1,2.3E1,2E0,2E0,2E0,2E0,9E0,1E1,3E0,3E0,2.7E1,4E0,6.9E1,5E0,6E0,3E0],"tree_param":{"num_deleted":"0","num_feature":"39","num_nodes":"117","size_leaf_vector":"1"}},{"base_weights":[6.274039E-3,-3.5679358E-1,5.0894004E-1,-4.050557E-1,3.816277E-1,3.0349365E-1,9.68563E-1,-5.457984E-1,-8.278194E-2,4.768702E-2,9.117131E-1,-4.3403164E-1,4.3332162E-1,2.4745883E-1,1.1988477E0,-3.1701982E-1,-6.313627E-1,-2.385079E-1,1.8736686E-1,-1.3784317E-2,1.8138905E-1,2.677532E-1,1.2317029E0,-1.66402E-2,-3.3995965E-1,2.9673675E-1,8.784725E-1,4.2783853E-1,-7.2128415E-1,3.94464E-1,1.2746272E0,-7.707499E-1,-2.074512E-1,4.505315E-1,-6.446465E-1,-5.3870356E-1,-2.680837E-2,1.1577202E-1,1.6574891E-2,3.26076E-1,-3.6529765E-1,-2.4982532E-3,1.0171379E-2,1.1176068E-2,2.0306177E-2,-2.0424409E-1,-6.905995E-1,5.850794E-2,3.750534E-1,1.15584224E-1,1.0888798E0,-4.50721E-2,5.7334125E-1,-1.8187443E-2,4.3073143E-3,1.8916475E-2,1.403779E-1,3.1206927E-1,1.3170859E0,-1.3649172E-2,-1.3436141E-4,-4.3176943E-3,2.765872E-3,-1.3402387E-3,1.3804589E-2,-9.804764E-3,1.0576382E-2,-1.9256849E-2,-6.516185E-3,-2.3482535E-3,7.6608635E-3,-8.632821E-3,3.1012564E-3,2.3663237E-3,1.1425518E-2,6.2985863E-3,-1.3323863E-2,2.3297125E-3,-5.465307E-3,-1.4621842E-2,-4.5280904E-3,-7.167005E-3,3.8674502E-3,4.0312367E-3,9.70743E-3,5.3413473E-3,-8.313276E-3,-2.4069068E-3,1.7043713E-2,1.2011896E-2,-5.619451E-3,1.1443848E-2,2.8300844E-3,-7.385149E-4,4.377667E-3,-3.2543354E-3,9.894729E-3,1.0044083E-2,2.0471966E-2],"categories":[],"categories_nodes":[],"categories_segments":[],"categories_sizes":[],"default_left":[0,0,0,0,0,0,0,0,0,0,0,0,0,0,0,0,0,0,0,0,0,0,0,0,0,0,0,0,0,0,0,0,0,0,0,0,0,0,0,0,0,0,0,0,0,0,0,0,0,0,0,0,0,0,0,0,0,0,0,0,0,0,0,0,0,0,0,0,0,0,0,0,0,0,0,0,0,0,0,0,0,0,0,0,0,0,0,0,0,0,0,0,0,0,0,0,0,0,0],"id":5,"left_children":[1,3,5,7,9,11,13,15,17,19,21,23,25,27,29,31,33,35,37,-1,39,41,43,-1,45,47,49,51,53,55,57,59,61,63,65,67,69,71,-1,73,75,-1,-1,-1,-1,77,79,81,83,85,87,89,91,-1,-1,-1,93,95,97,-1,-1,-1,-1,-1,-1,-1,-1,-1,-1,-1,-1,-1,-1,-1,-1,-1,-1,-1,-1,-1,-1,-1,-1,-1,-1,-1,-1,-1,-1,-1,-1,-1,-1,-1,-1,-1,-1,-1,-1],"loss_changes":[2.3214938E2,2.6396965E1,5.0166702E1,3.1401535E1,7.984569E0,3.547416E1,2.7096085E1,9.297562E0,8.922532E0,3.729861E0,3.366191E0,3.2647848E0,1.8932777E1,7.2166576E0,7.2541656E0,6.4583254E0,5.1921997E0,8.512152E0,4.9665375E0,0E0,2.0746064E0,1.2404201E0,7.372284E-2,0E0,2.2403035E0,4.4730835E0,1.1674877E1,2.413272E0,3.4401746E0,2.3737082E0,4.351639E0,2.6539402E0,3.4182014E0,1.2239621E0,4.439102E0,3.9479218E0,5.5666375E0,4.6007824E0,0E0,1.3971069E0,2.4683743E0,0E0,0E0,0E0,0E0,2.140007E0,1.2804112E0,6.5179315E0,5.1173687E0,2.7467754E0,3.5427094E0,2.498166E0,1.8129959E0,0E0,0E0,0E0,2.92154E-1,1.1050217E0,2.7931976E0,0E0,0E0,0E0,0E0,0E0,0E0,0E0,0E0,0E0,0E0,0E0,0E0,0E0,0E0,0E0,0E0,0E0,0E0,0E0,0E0,0E0,0E0,0E0,0E0,0E0,0E0,0E0,0E0,0E0,0E0,0E0,0E0,0E0,0E0,0E0,0E0,0E0,0E0,0E0,0E0],"parents":[2147483647,0,0,1,1,2,2,3,3,4,4,5,5,6,6,7,7,8,8,9,9,10,10,11,11,12,12,13,13,14,14,15,15,16,16,17,17,18,18,20,20,21,21,22,22,24,24,25,25,26,26,27,27,28,28,29,29,30,30,31,31,32,32,33,33,34,34,35,35,36,36,37,37,39,39,40,40,45,45,46,46,47,47,48,48,49,49,50,50,51,51,52,52,56,56,57,57,58,58],"right_children":[2,4,6,8,10,12,14,16,18,20,22,24,26,28,30,32,34,36,38,-1,40,42,44,-1,46,48,50,52,54,56,58,60,62,64,66,68,70,72,-1,74,76,-1,-1,-1,-1,78,80,82,84,86,88,90,92,-1,-1,-1,94,96,98,-1,-1,-1,-1,-1,-1,-1,-1,-1,-1,-1,-1,-1,-1,-1,-1,-1,-1,-1,-1,-1,-1,-1,-1,-1,-1,-1,-1,-1,-1,-1,-1,-1,-1,-1,-1,-1,-1,-1,-1],"split_conditions":[1E0,4.4E1,9.463601E0,1E1,1.4916667E1,3.375E0,5.5833335E0,-5.744356E0,2.1E1,4E0,3E0,4.8095236E0,2.7E1,8.5E0,4E0,3.5833333E0,7.8063946E0,6.125E0,1.825E1,-1.3784317E-2,8.7E1,3.7E1,6E0,-1.66402E-2,4.4583335E0,5.0972223E0,6.25E0,3.625E0,1E1,-3.6E1,-6E1,-6.0906577E0,9.749279E-1,6.1277013E0,5.3E1,6E0,2.2E1,3.258688E0,1.6574891E-2,1.5E1,1.1E1,-2.4982532E-3,1.0171379E-2,1.1176068E-2,2.0306177E-2,2E0,1.7E1,-1.6726376E1,4E0,1.5264417E1,-1.6276611E1,2E0,9E0,-1.8187443E-2,4.3073143E-3,1.8916475E-2,8E0,6E0,6.625E0,-1.3649172E-2,-1.3436141E-4,-4.3176943E-3,2.765872E-3,-1.3402387E-3,1.3804589E-2,-9.804764E-3,1.0576382E-2,-1.9256849E-2,-6.516185E-3,-2.3482535E-3,7.6608635E-3,-8.632821E-3,3.1012564E-3,2.3663237E-3,1.1425518E-2,6.2985863E-3,-1.3323863E-2,2.3297125E-3,-5.465307E-3,-1.4621842E-2,-4.5280904E-3,-7.167005E-3,3.8674502E-3,4.0312367E-3,9.70743E-3,5.3413473E-3,-8.313276E-3,-2.4069068E-3,1.7043713E-2,1.2011896E-2,-5.619451E-3,1.1443848E-2,2.8300844E-3,-7.385149E-4,4.377667E-3,-3.2543354E-3,9.894729E-3,1.0044083E-2,2.0471966E-2],"split_indices":[8,17,14,16,26,26,26,38,16,16,23,29,16,29,17,26,30,26,26,0,17,16,23,0,28,28,26,26,17,25,25,38,5,14,19,2,20,33,0,21,19,0,0,0,0,16,23,38,1,30,38,20,17,0,0,0,20,2,26,0,0,0,0,0,0,0,0,0,0,0,0,0,0,0,0,0,0,0,0,0,0,0,0,0,0,0,0,0,0,0,0,0,0,0,0,0,0,0,0],"split_type":[0,0,0,0,0,0,0,0,0,0,0,0,0,0,0,0,0,0,0,0,0,0,0,0,0,0,0,0,0,0,0,0,0,0,0,0,0,0,0,0,0,0,0,0,0,0,0,0,0,0,0,0,0,0,0,0,0,0,0,0,0,0,0,0,0,0,0,0,0,0,0,0,0,0,0,0,0,0,0,0,0,0,0,0,0,0,0,0,0,0,0,0,0,0,0,0,0,0,0],"sum_hessian":[1.271E3,7.38E2,5.33E2,6.93E2,4.5E1,3.69E2,1.64E2,4.82E2,2.11E2,2.8E1,1.7E1,5.5E1,3.14E2,4E1,1.24E2,1.32E2,3.5E2,1.34E2,7.7E1,3E0,2.5E1,6E0,1.1E1,6E0,4.9E1,2.41E2,7.3E1,3.4E1,6E0,1.1E1,1.13E2,2.5E1,1.07E2,4E0,3.46E2,5.5E1,7.9E1,7.2E1,5E0,2E1,5E0,3E0,3E0,3E0,8E0,3.6E1,1.3E1,6E1,1.81E2,1.6E1,5.7E1,8E0,2.6E1,4E0,2E0,2E0,9E0,5E0,1.08E2,2.1E1,4E0,8.9E1,1.8E1,2E0,2E0,3.44E2,2E0,6E0,4.9E1,6.4E1,1.5E1,8E0,6.4E1,1.5E1,5E0,2E0,3E0,1.1E1,2.5E1,7E0,6E0,1.6E1,4.4E1,1.31E2,5E1,1.2E1,4E0,2E0,5.5E1,2E0,6E0,1.7E1,9E0,4E0,5E0,2E0,3E0,8E0,1E2],"tree_param":{"num_deleted":"0","num_feature":"39","num_nodes":"99","size_leaf_vector":"1"}},{"base_weights":[7.0082145E-3,-3.4699836E-1,4.7943434E-1,-5.502936E-1,3.0463373E-2,2.6610875E-1,1.0446261E0,-5.8817226E-1,-8.2856506E-2,-1.5011355E-1,3.3501562E-1,-1.896899E-1,4.4601107E-1,6.048362E-1,1.3631417E0,-8.6126673E-1,-5.3991693E-1,1.2918082E-1,-4.3688697E-1,-2.9918978E-1,9.7097605E-2,-0E0,6.0830635E-1,-4.0764898E-1,-5.362981E-3,3.097504E-1,7.9852426E-1,1.0115104E0,4.8680553E-1,1.0693927E0,1.5590309E0,-9.4793606E-1,-1.4427325E-1,-5.787045E-1,-3.21094E-1,-1.02882154E-1,5.233364E-1,-5.9746736E-1,5.5374037E-3,-8.129907E-1,-2.1572886E-1,-8.4383905E-1,1.9208114E-1,-1.3550875E-1,5.495571E-1,1.4005065E-1,8.159702E-1,-2.3317294E-1,-8.293421E-1,3.7992868E-1,-1.265253E-1,1.3961877E-1,4.5315164E-1,5.9270215E-1,1.3185098E0,6.0683316E-1,1.811966E-2,5.8287853E-1,4.634647E-2,7.353069E-1,2.0307219E-2,1.671998E0,1.2540709E0,-7.105264E-3,-1.6040673E-2,5.9294556E-3,-8.385297E-3,-8.2629E-3,-1.8247243E-2,-1.3780458E-2,-3.394419E-3,4.42345E-3,-6.1034467E-3,-2.2786164E-4,1.5222392E-2,-1.3326827E-2,-5.248688E-4,-1.2768998E-3,-1.6645744E-2,-1.871165E-2,-2.14917E-3,-3.142849E-3,-1.7431313E-2,-9.243243E-3,3.4454179E-3,-5.781234E-3,2.700534E-3,1.2813067E-2,-0E0,4.414918E-3,-1.1441507E-2,5.964882E-3,1.6648704E-2,-7.115407E-3,1.0577973E-3,-1.6858222E-2,-3.5416011E-3,-2.458087E-3,7.1623763E-3,-5.49557E-4,-1.1762687E-2,7.2358064E-3,-6.2761613E-4,7.47619E-3,-6.58369E-3,4.9461285E-3,1.4707716E-2,2.5327684E-2,1.4708512E-2,8.3527964E-4,1.349301E-2,5.0651017E-3,1.1840895E-2,1.0420847E-2,-4.4797836E-3,1.3187793E-2,-4.257096E-3,2.8615514E-2,2.1588126E-2,8.8391835E-3,2.0790746E-2],"categories":[],"categories_nodes":[],"categories_segments":[],"categories_sizes":[],"default_left":[0,0,0,0,0,0,0,0,0,0,0,0,0,0,0,0,0,0,0,0,0,0,0,0,0,0,0,0,0,0,0,0,0,0,0,0,0,0,0,0,0,0,0,0,0,0,0,0,0,0,0,0,0,0,0,0,0,0,0,0,0,0,0,0,0,0,0,0,0,0,0,0,0,0,0,0,0,0,0,0,0,0,0,0,0,0,0,0,0,0,0,0,0,0,0,0,0,0,0,0,0,0,0,0,0,0,0,0,0,0,0,0,0,0,0,0,0,0,0,0,0],"id":6,"left_children":[1,3,5,7,9,11,13,15,17,19,21,23,25,27,29,31,33,35,37,39,41,43,45,47,49,51,53,55,57,59,61,63,65,67,69,71,73,75,-1,77,79,81,83,85,87,89,91,93,95,97,99,101,103,105,107,109,-1,111,113,115,-1,117,119,-1,-1,-1,-1,-1,-1,-1,-1,-1,-1,-1,-1,-1,-1,-1,-1,-1,-1,-1,-1,-1,-1,-1,-1,-1,-1,-1,-1,-1,-1,-1,-1,-1,-1,-1,-1,-1,-1,-1,-1,-1,-1,-1,-1,-1,-1,-1,-1,-1,-1,-1,-1,-1,-1,-1,-1,-1,-1],"loss_changes":[2.0905861E2,5.486239E1,6.436065E1,8.166458E0,1.3810664E1,3.199382E1,2.0011078E1,5.357498E0,2.7085063E0,5.8290257E0,8.562871E0,4.417674E0,1.3246326E1,2.6788807E0,3.897293E0,3.8229866E0,2.9728088E0,2.1059945E0,1.8690736E0,4.084777E0,5.3661776E0,3.2006204E0,4.9029064E0,3.5657406E0,2.8356764E0,4.879139E0,7.808098E0,6.16066E-1,2.0496855E0,2.7710686E0,5.105896E-1,2.923645E0,1.7970624E0,5.090622E0,3.0396647E0,1.8190877E0,2.307475E0,1.8205314E0,0E0,2.8086987E0,6.2321053E0,9.199624E-1,1.7083974E0,2.7655191E0,1.4460487E0,2.3870192E0,4.0690136E0,2.7104297E0,2.332924E0,8.241012E-1,2.6934557E0,5.8476963E0,4.533499E0,5.5346546E0,1.7270432E0,8.144617E-1,0E0,1.8612223E0,2.2485902E0,2.720543E0,0E0,3.5285187E-1,8.5279465E-1,0E0,0E0,0E0,0E0,0E0,0E0,0E0,0E0,0E0,0E0,0E0,0E0,0E0,0E0,0E0,0E0,0E0,0E0,0E0,0E0,0E0,0E0,0E0,0E0,0E0,0E0,0E0,0E0,0E0,0E0,0E0,0E0,0E0,0E0,0E0,0E0,0E0,0E0,0E0,0E0,0E0,0E0,0E0,0E0,0E0,0E0,0E0,0E0,0E0,0E0,0E0,0E0,0E0,0E0,0E0,0E0,0E0,0E0],"parents":[2147483647,0,0,1,1,2,2,3,3,4,4,5,5,6,6,7,7,8,8,9,9,10,10,11,11,12,12,13,13,14,14,15,15,16,16,17,17,18,18,19,19,20,20,21,21,22,22,23,23,24,24,25,25,26,26,27,27,28,28,29,29,30,30,31,31,32,32,33,33,34,34,35,35,36,36,37,37,39,39,40,40,41,41,42,42,43,43,44,44,45,45,46,46,47,47,48,48,49,49,50,50,51,51,52,52,53,53,54,54,55,55,57,57,58,58,59,59,61,61,62,62],"right_children":[2,4,6,8,10,12,14,16,18,20,22,24,26,28,30,32,34,36,38,40,42,44,46,48,50,52,54,56,58,60,62,64,66,68,70,72,74,76,-1,78,80,82,84,86,88,90,92,94,96,98,100,102,104,106,108,110,-1,112,114,116,-1,118,120,-1,-1,-1,-1,-1,-1,-1,-1,-1,-1,-1,-1,-1,-1,-1,-1,-1,-1,-1,-1,-1,-1,-1,-1,-1,-1,-1,-1,-1,-1,-1,-1,-1,-1,-1,-1,-1,-1,-1,-1,-1,-1,-1,-1,-1,-1,-1,-1,-1,-1,-1,-1,-1,-1,-1,-1,-1,-1],"split_conditions":[1E0,1E1,2.7E1,1.6E1,1.5994055E1,6.7757826E0,1.4752487E1,3.1125827E0,6E0,2.1E1,8.125828E0,5.064082E0,1.429902E1,4.6904764E0,1.909454E1,5E0,2.3E1,2.7E1,1.925E1,6.1277013E0,8E0,1.2E1,6E0,3E1,6E0,7E0,2.8357616E1,2E0,5.2E1,2.8357616E1,6E0,-7.818315E-1,4.3388373E-1,2.7E1,4.857143E0,1E0,2.2E1,3E0,5.5374037E-3,-6E0,1.25E0,3E1,-7.0710677E-1,3E0,3.1E1,2.9E1,1.1478791E0,-5E0,5E0,3E0,2.9E1,8E0,3.6E1,9.463601E0,-4.3388373E-1,3.4E1,1.811966E-2,7.029762E0,8E0,6E1,2.0307219E-2,-4.3388373E-1,8.927949E-1,-7.105264E-3,-1.6040673E-2,5.9294556E-3,-8.385297E-3,-8.2629E-3,-1.8247243E-2,-1.3780458E-2,-3.394419E-3,4.42345E-3,-6.1034467E-3,-2.2786164E-4,1.5222392E-2,-1.3326827E-2,-5.248688E-4,-1.2768998E-3,-1.6645744E-2,-1.871165E-2,-2.14917E-3,-3.142849E-3,-1.7431313E-2,-9.243243E-3,3.4454179E-3,-5.781234E-3,2.700534E-3,1.2813067E-2,-0E0,4.414918E-3,-1.1441507E-2,5.964882E-3,1.6648704E-2,-7.115407E-3,1.0577973E-3,-1.6858222E-2,-3.5416011E-3,-2.458087E-3,7.1623763E-3,-5.49557E-4,-1.1762687E-2,7.2358064E-3,-6.2761613E-4,7.47619E-3,-6.58369E-3,4.9461285E-3,1.4707716E-2,2.5327684E-2,1.4708512E-2,8.3527964E-4,1.349301E-2,5.0651017E-3,1.1840895E-2,1.0420847E-2,-4.4797836E-3,1.3187793E-2,-4.257096E-3,2.8615514E-2,2.1588126E-2,8.8391835E-3,2.0790746E-2],"split_indices":[8,16,16,24,27,27,27,13,34,16,13,27,27,29,27,24,0,20,34,14,32,0,31,22,22,16,13,19,22,13,0,5,5,23,29,25,0,18,0,25,34,16,4,23,2,19,37,25,0,16,2,22,18,14,5,16,0,29,17,17,0,5,37,0,0,0,0,0,0,0,0,0,0,0,0,0,0,0,0,0,0,0,0,0,0,0,0,0,0,0,0,0,0,0,0,0,0,0,0,0,0,0,0,0,0,0,0,0,0,0,0,0,0,0,0,0,0,0,0,0,0],"split_type":[0,0,0,0,0,0,0,0,0,0,0,0,0,0,0,0,0,0,0,0,0,0,0,0,0,0,0,0,0,0,0,0,0,0,0,0,0,0,0,0,0,0,0,0,0,0,0,0,0,0,0,0,0,0,0,0,0,0,0,0,0,0,0,0,0,0,0,0,0,0,0,0,0,0,0,0,0,0,0,0,0,0,0,0,0,0,0,0,0,0,0,0,0,0,0,0,0,0,0,0,0,0,0,0,0,0,0,0,0,0,0,0,0,0,0,0,0,0,0,0,0],"sum_hessian":[1.249E3,7.14E2,5.35E2,4.64E2,2.5E2,3.89E2,1.46E2,4.29E2,3.5E1,1.57E2,9.3E1,1.1E2,2.79E2,6.2E1,8.4E1,6.3E1,3.66E2,2.2E1,1.3E1,9.8E1,5.9E1,4.2E1,5.1E1,5E1,6E1,2.02E2,7.7E1,1.3E1,4.9E1,3.5E1,4.9E1,5.6E1,7E0,3.1E2,5.6E1,1.4E1,8E0,1.1E1,2E0,1.3E1,8.5E1,5E0,5.4E1,3.4E1,8E0,1.6E1,3.5E1,3.6E1,1.4E1,1.4E1,4.6E1,9.3E1,1.09E2,5.6E1,2.1E1,5E0,8E0,4E1,9E0,1.7E1,1.8E1,3.4E1,1.5E1,1.2E1,4.4E1,3E0,4E0,2.98E2,1.2E1,7E0,4.9E1,6E0,8E0,4E0,4E0,7E0,4E0,4E0,9E0,5E0,8E1,2E0,3E0,2E0,5.2E1,1.9E1,1.5E1,5E0,3E0,1.4E1,2E0,1.5E1,2E1,2E1,1.6E1,9E0,5E0,2E0,1.2E1,4.1E1,5E0,3.2E1,6.1E1,1.04E2,5E0,3.4E1,2.2E1,9E0,1.2E1,2E0,3E0,1.9E1,2.1E1,3E0,6E0,1.5E1,2E0,1.5E1,1.9E1,3E0,1.2E1],"tree_param":{"num_deleted":"0","num_feature":"39","num_nodes":"121","size_leaf_vector":"1"}},{"base_weights":[-6.250486E-3,-3.6429015E-1,4.808519E-1,-4.3614173E-1,2.61001E-1,2.1277103E-1,1.0695229E0,-5.654143E-1,-1.130832E-1,-3.2469425E-1,5.435561E-1,-4.6380174E-1,3.113715E-1,6.614502E-1,1.2803931E0,-6.2021524E-1,-2.6146358E-1,-5.8285797E-1,-9.188142E-3,1.2351866E-2,-4.4727346E-1,1.5157263E-1,8.183312E-1,-2.6246056E-1,-8.956423E-1,1.8130964E-1,5.583329E-1,8.3624697E-1,-6.974756E-2,9.458085E-1,1.4838465E0,-7.636773E-1,-5.3372306E-1,-8.5955536E-1,-1.7855789E-1,-7.1210223E-1,4.770912E-3,-5.1315475E-1,9.124905E-2,-1.0576783E0,-1.902269E-1,7.102291E-1,-2.0208415E-1,1.7800319E-1,9.1332376E-1,-1.1265129E-1,-1.121472E-2,-3.378856E-3,-1.0563837E0,1.2705861E-1,6.7593956E-1,5.876734E-1,-1.1924651E-2,1.6215618E-1,1.066914E0,-8.188243E-1,3.7768167E-1,1.0101074E0,-3.9749364E-3,1.0302169E-2,1.5285623E0,-1.1918159E-2,1.2774109E-3,-8.350049E-3,1.9942916E-3,-6.6098897E-4,-1.6490899E-2,4.2940996E-4,-8.009255E-3,-1.2855599E-2,2.658342E-3,-1.9795682E-2,-4.9512144E-3,5.0238525E-3,-8.6028985E-4,-5.557757E-3,-1.9662054E-2,-6.9464925E-3,8.666666E-3,1.3604782E-2,5.4925174E-4,2.7149862E-3,-9.543759E-3,-7.704474E-4,5.876533E-3,9.3157925E-3,1.6652739E-2,-6.3916715E-3,2.6708723E-3,-7.556372E-3,-1.8238692E-2,7.5383177E-3,1.1006825E-3,-1.6921764E-3,1.3104012E-2,4.718457E-3,1.1102107E-2,1.2060446E-2,-4.6904227E-3,1.0430329E-2,2.4231547E-2,-1.5870292E-2,-5.9379633E-3,9.269777E-3,-3.0978352E-3,1.6841596E-2,2.7297435E-3,9.35384E-3,2.3521658E-2],"categories":[],"categories_nodes":[],"categories_segments":[],"categories_sizes":[],"default_left":[0,0,0,0,0,0,0,0,0,0,0,0,0,0,0,0,0,0,0,0,0,0,0,0,0,0,0,0,0,0,0,0,0,0,0,0,0,0,0,0,0,0,0,0,0,0,0,0,0,0,0,0,0,0,0,0,0,0,0,0,0,0,0,0,0,0,0,0,0,0,0,0,0,0,0,0,0,0,0,0,0,0,0,0,0,0,0,0,0,0,0,0,0,0,0,0,0,0,0,0,0,0,0,0,0,0,0,0,0],"id":7,"left_children":[1,3,5,7,9,11,13,15,17,19,21,23,25,27,29,31,33,35,37,-1,39,41,43,45,47,49,51,53,55,57,59,61,63,65,67,69,-1,71,73,75,77,79,81,83,85,87,-1,-1,89,91,93,95,-1,97,99,101,103,105,-1,-1,107,-1,-1,-1,-1,-1,-1,-1,-1,-1,-1,-1,-1,-1,-1,-1,-1,-1,-1,-1,-1,-1,-1,-1,-1,-1,-1,-1,-1,-1,-1,-1,-1,-1,-1,-1,-1,-1,-1,-1,-1,-1,-1,-1,-1,-1,-1,-1,-1],"loss_changes":[2.1799702E2,3.243641E1,8.3383255E1,2.6933632E1,1.242828E1,2.4380524E1,1.3720795E1,7.5619354E0,9.02147E0,3.6134655E0,5.328705E0,3.867609E0,1.0142706E1,7.4166203E0,6.5626373E0,4.5767975E0,3.416697E0,4.03364E0,7.7635984E0,0E0,3.3673115E0,4.344982E0,1.6585255E0,2.2771544E0,1.3794403E0,5.538668E0,4.571125E0,7.082348E0,4.031011E0,3.4798622E0,1.7343903E0,3.8815155E0,3.813881E0,1.581079E0,4.7085447E0,3.9123898E0,0E0,3.465022E0,4.640314E0,8.036933E-1,3.5859127E0,1.0627832E0,2.3256884E0,2.4771954E-1,1.0358696E0,2.3740478E0,0E0,0E0,6.2159157E-1,3.7724295E0,3.2833805E0,4.3071785E0,0E0,3.9602041E0,6.3541985E0,1.7315483E-1,1.1372839E0,3.6112976E0,0E0,0E0,1.6383667E0,0E0,0E0,0E0,0E0,0E0,0E0,0E0,0E0,0E0,0E0,0E0,0E0,0E0,0E0,0E0,0E0,0E0,0E0,0E0,0E0,0E0,0E0,0E0,0E0,0E0,0E0,0E0,0E0,0E0,0E0,0E0,0E0,0E0,0E0,0E0,0E0,0E0,0E0,0E0,0E0,0E0,0E0,0E0,0E0,0E0,0E0,0E0,0E0],"parents":[2147483647,0,0,1,1,2,2,3,3,4,4,5,5,6,6,7,7,8,8,9,9,10,10,11,11,12,12,13,13,14,14,15,15,16,16,17,17,18,18,20,20,21,21,22,22,23,23,24,24,25,25,26,26,27,27,28,28,29,29,30,30,31,31,32,32,33,33,34,34,35,35,37,37,38,38,39,39,40,40,41,41,42,42,43,43,44,44,45,45,48,48,49,49,50,50,51,51,53,53,54,54,55,55,56,56,57,57,60,60],"right_children":[2,4,6,8,10,12,14,16,18,20,22,24,26,28,30,32,34,36,38,-1,40,42,44,46,48,50,52,54,56,58,60,62,64,66,68,70,-1,72,74,76,78,80,82,84,86,88,-1,-1,90,92,94,96,-1,98,100,102,104,106,-1,-1,108,-1,-1,-1,-1,-1,-1,-1,-1,-1,-1,-1,-1,-1,-1,-1,-1,-1,-1,-1,-1,-1,-1,-1,-1,-1,-1,-1,-1,-1,-1,-1,-1,-1,-1,-1,-1,-1,-1,-1,-1,-1,-1,-1,-1,-1,-1,-1,-1],"split_conditions":[1E0,1.4541667E1,1.429902E1,1.1E1,8E0,5.064082E0,1.8E1,1.4E1,7.7850423E0,1.4132393E1,4E0,3E1,1.6E1,2.0353098E1,1.0666667E1,7.0710677E-1,5.6937227E0,1.9E1,2E0,1.2351866E-2,1.1433365E0,3.1218822E0,1.4916667E1,6.5833335E0,3.625E0,6E0,4.3E1,6.1277013E0,3E0,1.22E2,1.1353093E1,2.6E1,1.3625E1,3.1111112E0,1.3306585E1,4.5833335E0,4.770912E-3,1E0,1.5E1,6E0,-2.100023E0,5E1,3.4E1,2E0,9E0,-9E0,-1.121472E-2,-3.378856E-3,-2E1,4.0694447E0,5.84073E0,1.0110978E1,-1.1924651E-2,6E0,1.8929886E1,3E0,3.4E1,6.1E1,-3.9749364E-3,1.0302169E-2,-5.3E1,-1.1918159E-2,1.2774109E-3,-8.350049E-3,1.9942916E-3,-6.6098897E-4,-1.6490899E-2,4.2940996E-4,-8.009255E-3,-1.2855599E-2,2.658342E-3,-1.9795682E-2,-4.9512144E-3,5.0238525E-3,-8.6028985E-4,-5.557757E-3,-1.9662054E-2,-6.9464925E-3,8.666666E-3,1.3604782E-2,5.4925174E-4,2.7149862E-3,-9.543759E-3,-7.704474E-4,5.876533E-3,9.3157925E-3,1.6652739E-2,-6.3916715E-3,2.6708723E-3,-7.556372E-3,-1.8238692E-2,7.5383177E-3,1.1006825E-3,-1.6921764E-3,1.3104012E-2,4.718457E-3,1.1102107E-2,1.2060446E-2,-4.6904227E-3,1.0430329E-2,2.4231547E-2,-1.5870292E-2,-5.9379633E-3,9.269777E-3,-3.0978352E-3,1.6841596E-2,2.7297435E-3,9.35384E-3,2.3521658E-2],"split_indices":[8,26,27,16,16,27,16,20,27,30,34,22,16,30,26,4,27,21,34,0,15,15,26,29,28,1,18,14,25,32,15,22,28,28,27,26,0,18,17,1,38,18,18,18,34,25,0,0,24,28,27,27,0,24,27,0,25,17,0,0,24,0,0,0,0,0,0,0,0,0,0,0,0,0,0,0,0,0,0,0,0,0,0,0,0,0,0,0,0,0,0,0,0,0,0,0,0,0,0,0,0,0,0,0,0,0,0,0,0],"split_type":[0,0,0,0,0,0,0,0,0,0,0,0,0,0,0,0,0,0,0,0,0,0,0,0,0,0,0,0,0,0,0,0,0,0,0,0,0,0,0,0,0,0,0,0,0,0,0,0,0,0,0,0,0,0,0,0,0,0,0,0,0,0,0,0,0,0,0,0,0,0,0,0,0,0,0,0,0,0,0,0,0,0,0,0,0,0,0,0,0,0,0,0,0,0,0,0,0,0,0,0,0,0,0,0,0,0,0,0,0],"sum_hessian":[1.249E3,7.2E2,5.29E2,6.46E2,7.4E1,3.64E2,1.65E2,4.61E2,1.85E2,2.4E1,5E1,4.6E1,3.18E2,5.7E1,1.08E2,3.9E2,7.1E1,3.3E1,1.52E2,2E0,2.2E1,2.1E1,2.9E1,3.2E1,1.4E1,2.09E2,1.09E2,4.6E1,1.1E1,4.2E1,6.6E1,1.45E2,2.45E2,8E0,6.3E1,2.9E1,4E0,2.5E1,1.27E2,6E0,1.6E1,8E0,1.3E1,4E0,2.5E1,2.5E1,7E0,3E0,1.1E1,1.89E2,2E1,1.07E2,2E0,1.2E1,3.4E1,4E0,7E0,4E1,2E0,4E0,6.2E1,1.4E2,5E0,2.37E2,8E0,2E0,6E0,4E1,2.3E1,2.5E1,4E0,4E0,2.1E1,4.8E1,7.9E1,2E0,4E0,1.2E1,4E0,6E0,2E0,7E0,6E0,2E0,2E0,1.1E1,1.4E1,1.2E1,1.3E1,3E0,8E0,2.3E1,1.66E2,4E0,1.6E1,3.9E1,6.8E1,5E0,7E0,2.1E1,1.3E1,2E0,2E0,5E0,2E0,3.5E1,5E0,3E0,5.9E1],"tree_param":{"num_deleted":"0","num_feature":"39","num_nodes":"109","size_leaf_vector":"1"}},{"base_weights":[-1.4407288E-2,-3.711767E-1,4.6773258E-1,-5.400461E-1,1.2329865E-2,1.5263589E-1,8.998242E-1,-5.7926375E-1,-4.259905E-2,-1.8775713E-1,2.4377172E-1,2.750838E-2,3.9289302E-1,8.059355E-1,1.5362098E0,-7.073676E-1,-4.4350663E-1,-5.1024204E-1,1.3491191E-1,-3.2934493E-1,2.6835385E-1,-1.2394237E-1,3.884117E-1,-1.7312068E-1,3.8967976E-1,8.7643343E-1,2.6841855E-1,5.907025E-1,1.3407627E0,1.1947168E-2,1.6386869E0,-7.2159773E-1,5.1142415E-3,-6.398486E-1,-3.0353582E-1,-1.5309532E-1,-8.1191224E-1,-1.3483298E-1,5.8282423E-1,-1.278572E-1,-6.298353E-1,6.051149E-1,-3.3300385E-1,-2.9700837E-1,3.968518E-1,2.7335572E-1,8.516311E-1,-1.0862987E-1,-4.3963838E-1,4.9873435E-1,-2.1560305E-1,7.774419E-4,1.0060495E0,5.1708466E-1,-5.5435188E-2,6.3345927E-1,-3.4493655E-1,1.3825271E0,2.1322286E-3,2.7646242E-2,1.9104468E-2,-1.1351014E-2,-4.2660222E-3,-6.0894974E-3,-1.2579262E-2,-1.478618E-3,-9.03862E-3,-5.883628E-3,2.8849337E-3,-1.4424906E-2,-6.2982347E-3,5.14465E-3,-1.0002097E-2,5.0605643E-3,1.1493038E-2,-7.38939E-3,1.4979936E-3,-1.5147294E-2,-5.5310684E-3,1.2113434E-2,-1.5500949E-3,8.565859E-3,-1.1090481E-2,-7.6275873E-3,2.2983039E-3,-1.1198227E-4,1.0175059E-2,1.9048849E-3,8.629107E-3,7.0753694E-3,1.5322657E-2,-9.802414E-3,-4.453234E-4,5.850962E-3,-9.080977E-3,2.2235087E-3,1.2276812E-2,-1.2817858E-2,8.142327E-4,1.6387459E-2,3.2142745E-3,3.192784E-3,1.646446E-2,2.2895611E-4,-1.6024094E-2,6.9849344E-4,1.1276152E-2,2.6546E-3,-1.2477832E-2,2.1423949E-2,1.0568095E-2],"categories":[],"categories_nodes":[],"categories_segments":[],"categories_sizes":[],"default_left":[0,0,0,0,0,0,0,0,0,0,0,0,0,0,0,0,0,0,0,0,0,0,0,0,0,0,0,0,0,0,0,0,0,0,0,0,0,0,0,0,0,0,0,0,0,0,0,0,0,0,0,0,0,0,0,0,0,0,0,0,0,0,0,0,0,0,0,0,0,0,0,0,0,0,0,0,0,0,0,0,0,0,0,0,0,0,0,0,0,0,0,0,0,0,0,0,0,0,0,0,0,0,0,0,0,0,0,0,0,0,0],"id":8,"left_children":[1,3,5,7,9,11,13,15,17,19,21,23,25,27,29,31,33,35,37,39,41,43,45,47,49,51,53,55,57,-1,59,61,-1,63,65,67,69,71,73,75,77,79,81,83,85,87,89,91,93,95,97,-1,99,101,103,105,107,109,-1,-1,-1,-1,-1,-1,-1,-1,-1,-1,-1,-1,-1,-1,-1,-1,-1,-1,-1,-1,-1,-1,-1,-1,-1,-1,-1,-1,-1,-1,-1,-1,-1,-1,-1,-1,-1,-1,-1,-1,-1,-1,-1,-1,-1,-1,-1,-1,-1,-1,-1,-1,-1],"loss_changes":[2.1742009E2,4.7079697E1,7.305966E1,9.798706E0,1.0329328E1,9.33813E0,1.2797104E1,7.9158936E0,3.1661263E0,7.7645206E0,5.5420613E0,1.497662E1,6.235201E0,2.2357254E1,1.3861084E0,3.7148361E0,6.135395E0,1.0208752E0,3.384298E0,5.46173E0,5.8860025E0,2.712829E0,3.7979174E0,2.2261095E0,4.919573E0,2.2189941E0,6.9228535E0,5.824379E0,2.6538544E0,0E0,4.9855042E-1,3.4733505E0,0E0,4.1607056E0,8.178933E0,5.02054E-1,5.1912785E-2,4.5787277E0,2.8818774E-1,4.654422E0,3.3661633E0,2.7302966E0,4.0769696E0,2.199221E0,8.8964653E-1,2.601839E0,6.2030697E-1,4.5799837E0,3.6358933E0,6.8948774E0,2.0462108E0,0E0,1.0838642E0,8.383774E0,2.7460487E0,9.418434E0,1.7581828E0,1.0801926E0,0E0,0E0,0E0,0E0,0E0,0E0,0E0,0E0,0E0,0E0,0E0,0E0,0E0,0E0,0E0,0E0,0E0,0E0,0E0,0E0,0E0,0E0,0E0,0E0,0E0,0E0,0E0,0E0,0E0,0E0,0E0,0E0,0E0,0E0,0E0,0E0,0E0,0E0,0E0,0E0,0E0,0E0,0E0,0E0,0E0,0E0,0E0,0E0,0E0,0E0,0E0,0E0,0E0],"parents":[2147483647,0,0,1,1,2,2,3,3,4,4,5,5,6,6,7,7,8,8,9,9,10,10,11,11,12,12,13,13,14,14,15,15,16,16,17,17,18,18,19,19,20,20,21,21,22,22,23,23,24,24,25,25,26,26,27,27,28,28,30,30,31,31,33,33,34,34,35,35,36,36,37,37,38,38,39,39,40,40,41,41,42,42,43,43,44,44,45,45,46,46,47,47,48,48,49,49,50,50,52,52,53,53,54,54,55,55,56,56,57,57],"right_children":[2,4,6,8,10,12,14,16,18,20,22,24,26,28,30,32,34,36,38,40,42,44,46,48,50,52,54,56,58,-1,60,62,-1,64,66,68,70,72,74,76,78,80,82,84,86,88,90,92,94,96,98,-1,100,102,104,106,108,110,-1,-1,-1,-1,-1,-1,-1,-1,-1,-1,-1,-1,-1,-1,-1,-1,-1,-1,-1,-1,-1,-1,-1,-1,-1,-1,-1,-1,-1,-1,-1,-1,-1,-1,-1,-1,-1,-1,-1,-1,-1,-1,-1,-1,-1,-1,-1,-1,-1,-1,-1,-1,-1],"split_conditions":[2.0258278E1,1.1E1,1.7E1,1.6E1,2.1E1,6.234898E-1,6.6E1,6.2083335E0,4.2083335E0,1.1353093E1,8.125828E0,5.0833335E0,-1.2E1,1.0375E1,1.4455659E1,3.1E1,1E0,2E0,8.273809E0,5.522533E0,1.556553E1,1.1E1,5.3E1,6E0,1E1,1E0,4.3388373E-1,6.6E1,1.16E2,1.1947168E-2,1.8E1,1.0751223E1,5.1142415E-3,1.7E1,8.283662E0,8.125828E0,8.660254E-1,6.375E0,1.6E1,6.0833335E0,1E1,9.5E0,-8E0,7.351546E0,1E0,9.958333E0,6.234898E-1,2.25E0,6E0,1E0,1.2E1,7.774419E-4,2.2E1,9.208333E0,3.7E1,4.375E0,7E0,6.6E1,2.1322286E-3,2.7646242E-2,1.9104468E-2,-1.1351014E-2,-4.2660222E-3,-6.0894974E-3,-1.2579262E-2,-1.478618E-3,-9.03862E-3,-5.883628E-3,2.8849337E-3,-1.4424906E-2,-6.2982347E-3,5.14465E-3,-1.0002097E-2,5.0605643E-3,1.1493038E-2,-7.38939E-3,1.4979936E-3,-1.5147294E-2,-5.5310684E-3,1.2113434E-2,-1.5500949E-3,8.565859E-3,-1.1090481E-2,-7.6275873E-3,2.2983039E-3,-1.1198227E-4,1.0175059E-2,1.9048849E-3,8.629107E-3,7.0753694E-3,1.5322657E-2,-9.802414E-3,-4.453234E-4,5.850962E-3,-9.080977E-3,2.2235087E-3,1.2276812E-2,-1.2817858E-2,8.142327E-4,1.6387459E-2,3.2142745E-3,3.192784E-3,1.646446E-2,2.2895611E-4,-1.6024094E-2,6.9849344E-4,1.1276152E-2,2.6546E-3,-1.2477832E-2,2.1423949E-2,1.0568095E-2],"split_indices":[13,16,16,24,16,6,16,26,26,15,13,26,24,26,15,2,23,18,29,15,33,0,18,19,19,1,5,22,24,0,2,15,0,2,33,13,3,26,2,26,2,34,25,15,18,26,6,26,22,19,19,0,25,26,18,26,23,18,0,0,0,0,0,0,0,0,0,0,0,0,0,0,0,0,0,0,0,0,0,0,0,0,0,0,0,0,0,0,0,0,0,0,0,0,0,0,0,0,0,0,0,0,0,0,0,0,0,0,0,0,0],"split_type":[0,0,0,0,0,0,0,0,0,0,0,0,0,0,0,0,0,0,0,0,0,0,0,0,0,0,0,0,0,0,0,0,0,0,0,0,0,0,0,0,0,0,0,0,0,0,0,0,0,0,0,0,0,0,0,0,0,0,0,0,0,0,0,0,0,0,0,0,0,0,0,0,0,0,0,0,0,0,0,0,0,0,0,0,0,0,0,0,0,0,0,0,0,0,0,0,0,0,0,0,0,0,0,0,0,0,0,0,0,0,0],"sum_hessian":[1.263E3,7.26E2,5.37E2,5.04E2,2.22E2,3.11E2,2.26E2,4.67E2,3.7E1,1.19E2,1.03E2,2.05E2,1.06E2,1.98E2,2.8E1,2.39E2,2.28E2,1E1,2.7E1,9.1E1,2.8E1,2.9E1,7.4E1,1.32E2,7.3E1,2.1E1,8.5E1,1.42E2,5.6E1,4E0,2.4E1,2.36E2,3E0,9.4E1,1.34E2,5E0,5E0,1.7E1,1E1,5.5E1,3.6E1,1.8E1,1E1,2.2E1,7E0,6E1,1.4E1,1.07E2,2.5E1,6.2E1,1.1E1,3E0,1.8E1,4.8E1,3.7E1,1.36E2,6E0,5.4E1,2E0,1.4E1,1E1,2.18E2,1.8E1,4.4E1,5E1,8E1,5.4E1,3E0,2E0,3E0,2E0,9E0,8E0,5E0,5E0,2.1E1,3.4E1,1.4E1,2.2E1,1.4E1,4E0,3E0,7E0,1.5E1,7E0,3E0,4E0,4.1E1,1.9E1,5E0,9E0,1.3E1,9.4E1,4E0,2.1E1,3E1,3.2E1,3E0,8E0,1.6E1,2E0,3.2E1,1.6E1,3.5E1,2E0,2.3E1,1.13E2,3E0,3E0,5E1,4E0],"tree_param":{"num_deleted":"0","num_feature":"39","num_nodes":"111","size_leaf_vector":"1"}},{"base_weights":[2.4341824E-3,-3.383961E-1,4.7599566E-1,-4.435725E-1,2.8720874E-1,2.3560116E-1,1.2005503E0,-4.964987E-1,1.3886824E-1,-1.829367E-1,4.6344104E-1,-2.4052568E-1,3.797274E-1,1.3338182E0,5.7459116E-1,-6.323531E-1,-3.4263507E-1,-2.654917E-1,4.7160596E-1,3.9147E-1,-3.8138235E-1,2.8262392E-1,9.392278E-1,-1.9772793E-1,-1.5380358E-2,1.0741301E-1,5.3356594E-1,9.7199565E-1,1.5379547E0,-7.7706456E-2,1.1557213E0,-6.8440145E-1,-3.182262E-1,-5.1235265E-1,-8.637898E-2,-4.5007324E-1,3.7041825E-1,-2.6847738E-1,6.771499E-1,-1.1054154E-4,1.0039393E-2,-6.984559E-1,3.9636093E-1,4.2229772E-1,-1.6385369E-1,5.0696635E-1,1.1915965E0,-2.8507002E-2,-3.88343E-1,6.893956E-1,9.825448E-3,6.681465E-1,2.768432E-1,6.0047555E-1,2.1285538E-2,1.3633482E0,1.758972E0,-4.0283582E-1,1.0630628E-2,1.3316448E0,7.4823927E-3,-9.070766E-3,-1.4114503E-2,-1.0268365E-2,8.974036E-5,1.0291898E-3,-8.532488E-3,8.556276E-3,-2.7192528E-3,-3.5374518E-3,-1.6189393E-2,-2.551214E-4,9.127802E-3,-8.418771E-3,4.383171E-3,1.4149004E-2,7.4152797E-3,-1.2024035E-2,-0E0,7.4376486E-4,1.38193E-2,-8.4574465E-3,7.187862E-3,-9.424743E-3,2.1065546E-3,1.00436015E-2,-0E0,1.9502439E-2,7.1595004E-3,-3.0386678E-3,3.227166E-3,-2.3169147E-3,-9.893934E-3,2.7199076E-3,1.37690455E-2,-8.996858E-3,1.5581708E-3,7.1772705E-3,1.3057182E-2,-1.428373E-2,5.4588458E-3,-2.0647715E-3,1.0801908E-2,2.1855824E-2,1.3950048E-2,2.8224176E-2,1.6324006E-2,-1.0346121E-2,-9.00893E-4,2.2845604E-2,7.066938E-3],"categories":[],"categories_nodes":[],"categories_segments":[],"categories_sizes":[],"default_left":[0,0,0,0,0,0,0,0,0,0,0,0,0,0,0,0,0,0,0,0,0,0,0,0,0,0,0,0,0,0,0,0,0,0,0,0,0,0,0,0,0,0,0,0,0,0,0,0,0,0,0,0,0,0,0,0,0,0,0,0,0,0,0,0,0,0,0,0,0,0,0,0,0,0,0,0,0,0,0,0,0,0,0,0,0,0,0,0,0,0,0,0,0,0,0,0,0,0,0,0,0,0,0,0,0,0,0,0,0,0,0],"id":9,"left_children":[1,3,5,7,9,11,13,15,17,19,21,23,25,27,29,31,33,35,37,39,41,43,45,47,-1,49,51,53,55,57,59,61,63,65,67,69,71,73,75,-1,-1,77,79,81,83,85,87,89,91,93,95,97,99,101,-1,103,105,107,-1,109,-1,-1,-1,-1,-1,-1,-1,-1,-1,-1,-1,-1,-1,-1,-1,-1,-1,-1,-1,-1,-1,-1,-1,-1,-1,-1,-1,-1,-1,-1,-1,-1,-1,-1,-1,-1,-1,-1,-1,-1,-1,-1,-1,-1,-1,-1,-1,-1,-1,-1,-1],"loss_changes":[1.9917937E2,4.7282204E1,8.975019E1,1.8995155E1,8.631889E0,2.6712418E1,1.0240875E1,1.1621796E1,7.002018E0,3.3228178E0,6.3014774E0,2.8772812E0,1.2444191E1,6.9194183E0,9.006946E0,4.721367E0,1.1494841E1,2.845705E0,4.4467435E0,8.6661243E-1,5.4554644E0,3.5085673E0,1.8493519E0,2.7637715E0,0E0,6.123829E0,6.4420166E0,6.0333138E0,1.2111359E0,3.0678492E0,1.0208874E0,4.8616714E0,5.202381E0,5.2781754E0,6.6707177E0,2.30089E0,5.4210883E-1,1.1624625E0,7.8949356E-1,0E0,0E0,1.1131153E0,1.1118236E0,2.5152712E0,1.9764903E0,7.295091E-1,5.7019615E-1,1.9933498E0,2.4777207E0,1.6615872E0,5.36727E0,4.5019493E0,7.2612963E0,2.0658445E0,0E0,8.070984E-1,1.0896683E0,7.77725E-1,0E0,1.1061573E0,0E0,0E0,0E0,0E0,0E0,0E0,0E0,0E0,0E0,0E0,0E0,0E0,0E0,0E0,0E0,0E0,0E0,0E0,0E0,0E0,0E0,0E0,0E0,0E0,0E0,0E0,0E0,0E0,0E0,0E0,0E0,0E0,0E0,0E0,0E0,0E0,0E0,0E0,0E0,0E0,0E0,0E0,0E0,0E0,0E0,0E0,0E0,0E0,0E0,0E0,0E0],"parents":[2147483647,0,0,1,1,2,2,3,3,4,4,5,5,6,6,7,7,8,8,9,9,10,10,11,11,12,12,13,13,14,14,15,15,16,16,17,17,18,18,19,19,20,20,21,21,22,22,23,23,25,25,26,26,27,27,28,28,29,29,30,30,31,31,32,32,33,33,34,34,35,35,36,36,37,37,38,38,41,41,42,42,43,43,44,44,45,45,46,46,47,47,48,48,49,49,50,50,51,51,52,52,53,53,55,55,56,56,57,57,59,59],"right_children":[2,4,6,8,10,12,14,16,18,20,22,24,26,28,30,32,34,36,38,40,42,44,46,48,-1,50,52,54,56,58,60,62,64,66,68,70,72,74,76,-1,-1,78,80,82,84,86,88,90,92,94,96,98,100,102,-1,104,106,108,-1,110,-1,-1,-1,-1,-1,-1,-1,-1,-1,-1,-1,-1,-1,-1,-1,-1,-1,-1,-1,-1,-1,-1,-1,-1,-1,-1,-1,-1,-1,-1,-1,-1,-1,-1,-1,-1,-1,-1,-1,-1,-1,-1,-1,-1,-1,-1,-1,-1,-1,-1,-1],"split_conditions":[1E0,2.1E1,1.5628615E1,2.2E1,8.125828E0,3.7083333E0,7.818315E-1,6.1666665E0,4E0,2.5881904E-1,1.4916667E1,3.8907703E1,8E0,1.8929886E1,1.7E1,9.571428E0,3E0,1.3878726E1,9.517338E0,1E0,6.79986E0,9.319445E0,3E0,4.3194447E0,-1.5380358E-2,4.3194447E0,2.1E1,2.8357616E1,5E0,2.5E1,1.675E1,9E0,3.5833333E0,5.107143E0,1.0935831E1,1.2681069E1,1E0,3E0,3.3E1,-1.1054154E-4,1.0039393E-2,7.818315E-1,5E0,8E0,4E0,5.3E1,1.4428572E1,3.3611112E0,6E0,7.4618597E0,4.763889E0,6.160714E0,-7.818315E-1,8.25E0,2.1285538E-2,2.3E1,1E0,1.8592113E1,1.0630628E-2,1E0,7.4823927E-3,-9.070766E-3,-1.4114503E-2,-1.0268365E-2,8.974036E-5,1.0291898E-3,-8.532488E-3,8.556276E-3,-2.7192528E-3,-3.5374518E-3,-1.6189393E-2,-2.551214E-4,9.127802E-3,-8.418771E-3,4.383171E-3,1.4149004E-2,7.4152797E-3,-1.2024035E-2,-0E0,7.4376486E-4,1.38193E-2,-8.4574465E-3,7.187862E-3,-9.424743E-3,2.1065546E-3,1.00436015E-2,-0E0,1.9502439E-2,7.1595004E-3,-3.0386678E-3,3.227166E-3,-2.3169147E-3,-9.893934E-3,2.7199076E-3,1.37690455E-2,-8.996858E-3,1.5581708E-3,7.1772705E-3,1.3057182E-2,-1.428373E-2,5.4588458E-3,-2.0647715E-3,1.0801908E-2,2.1855824E-2,1.3950048E-2,2.8224176E-2,1.6324006E-2,-1.0346121E-2,-9.00893E-4,2.2845604E-2,7.066938E-3],"split_indices":[8,16,27,20,13,26,5,26,16,3,26,33,16,27,16,31,23,33,27,18,33,28,23,28,0,28,22,13,1,31,34,18,26,29,27,33,17,17,32,0,0,5,1,32,22,17,31,28,16,27,28,29,5,26,0,25,3,33,0,3,0,0,0,0,0,0,0,0,0,0,0,0,0,0,0,0,0,0,0,0,0,0,0,0,0,0,0,0,0,0,0,0,0,0,0,0,0,0,0,0,0,0,0,0,0,0,0,0,0,0,0],"split_type":[0,0,0,0,0,0,0,0,0,0,0,0,0,0,0,0,0,0,0,0,0,0,0,0,0,0,0,0,0,0,0,0,0,0,0,0,0,0,0,0,0,0,0,0,0,0,0,0,0,0,0,0,0,0,0,0,0,0,0,0,0,0,0,0,0,0,0,0,0,0,0,0,0,0,0,0,0,0,0,0,0,0,0,0,0,0,0,0,0,0,0,0,0,0,0,0,0,0,0,0,0,0,0,0,0,0,0,0,0,0,0],"sum_hessian":[1.233E3,7.17E2,5.16E2,6.14E2,1.03E2,3.88E2,1.28E2,5.63E2,5.1E1,2.8E1,7.5E1,9E1,2.98E2,1.05E2,2.3E1,2.98E2,2.65E2,2.3E1,2.8E1,7E0,2.1E1,5.5E1,2E1,8.6E1,4E0,1.08E2,1.9E2,3.9E1,6.6E1,1.1E1,1.2E1,2.55E2,4.3E1,1.59E2,1.06E2,1.8E1,5E0,6E0,2.2E1,3E0,4E0,1.5E1,6E0,4.2E1,1.3E1,8E0,1.2E1,4.6E1,4E1,1.5E1,9.3E1,1.24E2,6.6E1,2.2E1,1.7E1,3.9E1,2.7E1,8E0,3E0,9E0,3E0,1.96E2,5.9E1,2E1,2.3E1,1.4E1,1.45E2,1.3E1,9.3E1,1.4E1,4E0,2E0,3E0,4E0,2E0,8E0,1.4E1,1.3E1,2E0,4E0,2E0,2E0,4E1,5E0,8E0,6E0,2E0,1E1,2E0,2.7E1,1.9E1,2.2E1,1.8E1,5E0,1E1,1.2E1,8.1E1,6.5E1,5.9E1,4E0,6.2E1,3E0,1.9E1,3.1E1,8E0,2.2E1,5E0,4E0,4E0,7E0,2E0],"tree_param":{"num_deleted":"0","num_feature":"39","num_nodes":"111","size_leaf_vector":"1"}},{"base_weights":[-1.7775106E-3,-3.5828045E-1,4.742473E-1,-5.601607E-1,-1.7148461E-2,1.5886545E-1,9.7303873E-1,-6.247431E-1,-2.1547036E-1,-1.2905385E-1,5.87221E-1,-3.1470087E-1,2.8607407E-1,7.0038265E-1,1.251154E0,-7.237694E-1,-4.5355216E-1,1.5864994E-1,-3.8435867E-1,-7.795907E-1,-6.676676E-2,1.9239855E-1,8.552121E-1,-8.08841E-1,-2.03673E-1,1.8349512E-1,6.4218926E-1,9.317339E-1,4.0703017E-1,5.925875E-1,1.311487E0,-6.535799E-1,-9.82736E-1,3.3289185E-1,-5.225586E-1,-1.3638352E-2,8.604296E-1,4.1271356E-1,-4.7967818E-1,4.590176E-3,-9.8927635E-1,-4.1567045E-1,4.643594E-2,1.2488846E-2,2.7786925E-2,6.6405237E-1,1.8563561E-2,-1.0083196E0,2.56106E-3,2.3634507E-1,-3.4915406E-1,-1.263627E-2,3.4879562E-1,7.0882916E-1,-1.4184823E-2,6.647939E-1,1.2396464E0,-8.449664E-2,6.8402046E-1,1.9056175E-2,1.7432928E-1,1.0684428E0,1.5393538E0,-1.8133681E-2,-9.331349E-3,-1.2970896E-2,-1.8157132E-2,1.0834419E-2,-1.7901255E-2,-1.2874084E-2,-4.746443E-3,4.5931945E-3,-5.0705248E-3,1.697782E-2,5.953777E-3,1.4705459E-2,-5.6136516E-4,-1.1551225E-2,-4.5207012E-3,-1.7825752E-2,-9.852053E-4,-7.835423E-3,7.4347947E-3,8.095483E-5,1.4686014E-2,6.72582E-3,-5.819999E-3,1.3905502E-2,5.8281026E-3,-9.870779E-3,-1.748336E-2,-8.9856796E-4,6.8230284E-3,-2.7985189E-3,-1.1836622E-2,8.040858E-3,-1.3589287E-3,6.155539E-3,-2.841197E-3,1.12747075E-2,-4.9386304E-3,1.1757933E-2,-2.2808944E-3,2.010001E-2,5.6169154E-3,-1.1248224E-2,9.873855E-3,1.5145912E-2,2.5591997E-3,5.2669174E-3,-2.3816095E-3,1.683622E-2,-1.2891595E-3,1.5288323E-2,2.4493469E-2],"categories":[],"categories_nodes":[],"categories_segments":[],"categories_sizes":[],"default_left":[0,0,0,0,0,0,0,0,0,0,0,0,0,0,0,0,0,0,0,0,0,0,0,0,0,0,0,0,0,0,0,0,0,0,0,0,0,0,0,0,0,0,0,0,0,0,0,0,0,0,0,0,0,0,0,0,0,0,0,0,0,0,0,0,0,0,0,0,0,0,0,0,0,0,0,0,0,0,0,0,0,0,0,0,0,0,0,0,0,0,0,0,0,0,0,0,0,0,0,0,0,0,0,0,0,0,0,0,0,0,0,0,0,0,0],"id":10,"left_children":[1,3,5,7,9,11,13,15,17,19,21,23,25,27,29,31,33,35,37,39,41,43,45,47,49,51,53,55,57,59,61,63,65,67,69,71,73,75,77,-1,79,81,83,-1,85,87,-1,89,-1,91,93,95,97,99,-1,101,103,105,107,-1,109,111,113,-1,-1,-1,-1,-1,-1,-1,-1,-1,-1,-1,-1,-1,-1,-1,-1,-1,-1,-1,-1,-1,-1,-1,-1,-1,-1,-1,-1,-1,-1,-1,-1,-1,-1,-1,-1,-1,-1,-1,-1,-1,-1,-1,-1,-1,-1,-1,-1,-1,-1,-1,-1],"loss_changes":[2.1144579E2,4.9034637E1,8.379086E1,9.852463E0,1.7971333E1,1.9772743E1,1.5123138E1,6.1595764E0,4.5594697E0,9.028406E0,4.2564173E0,3.680006E0,9.342781E0,6.9034653E0,3.5491333E0,3.9140167E0,7.6670856E0,2.7686462E0,3.863171E0,4.6244164E0,8.144714E0,1.7896147E0,1.2847576E0,2.5705194E0,3.727723E0,6.551766E0,6.407608E0,4.301079E0,6.525913E0,2.5103302E0,4.170059E0,2.8287888E0,7.032089E-1,7.242455E0,8.697716E0,1.9728823E0,2.6507306E-1,1.4708571E0,2.1345215E0,0E0,2.9325333E0,5.040909E0,5.899776E0,0E0,2.6257725E0,1.0220804E0,0E0,1.03611946E-1,0E0,9.7206634E-1,2.9891791E0,3.9587507E0,3.6786842E0,2.6117287E0,0E0,3.2521782E0,1.9642487E0,8.900188E0,4.955065E0,0E0,4.2029178E-1,2.9972076E0,1.2977371E0,0E0,0E0,0E0,0E0,0E0,0E0,0E0,0E0,0E0,0E0,0E0,0E0,0E0,0E0,0E0,0E0,0E0,0E0,0E0,0E0,0E0,0E0,0E0,0E0,0E0,0E0,0E0,0E0,0E0,0E0,0E0,0E0,0E0,0E0,0E0,0E0,0E0,0E0,0E0,0E0,0E0,0E0,0E0,0E0,0E0,0E0,0E0,0E0,0E0,0E0,0E0,0E0],"parents":[2147483647,0,0,1,1,2,2,3,3,4,4,5,5,6,6,7,7,8,8,9,9,10,10,11,11,12,12,13,13,14,14,15,15,16,16,17,17,18,18,19,19,20,20,21,21,22,22,23,23,24,24,25,25,26,26,27,27,28,28,29,29,30,30,31,31,32,32,33,33,34,34,35,35,36,36,37,37,38,38,40,40,41,41,42,42,44,44,45,45,47,47,49,49,50,50,51,51,52,52,53,53,55,55,56,56,57,57,58,58,60,60,61,61,62,62],"right_children":[2,4,6,8,10,12,14,16,18,20,22,24,26,28,30,32,34,36,38,40,42,44,46,48,50,52,54,56,58,60,62,64,66,68,70,72,74,76,78,-1,80,82,84,-1,86,88,-1,90,-1,92,94,96,98,100,-1,102,104,106,108,-1,110,112,114,-1,-1,-1,-1,-1,-1,-1,-1,-1,-1,-1,-1,-1,-1,-1,-1,-1,-1,-1,-1,-1,-1,-1,-1,-1,-1,-1,-1,-1,-1,-1,-1,-1,-1,-1,-1,-1,-1,-1,-1,-1,-1,-1,-1,-1,-1,-1,-1,-1,-1,-1,-1],"split_conditions":[1E0,8E0,7.5833335E0,1.0295779E1,1.4916667E1,3.375E0,9.463601E0,6.9583335E0,5.25E0,1.25E0,4E0,2.125E0,9.463601E0,7.0710677E-1,4E0,8E0,5.017857E0,4.5E0,4.861111E0,6.1277013E0,5.0833335E0,8.273809E0,1.3625E1,4E1,3E0,5.5972223E0,8.263889E0,1.0375E1,-1.6726376E1,1.5714286E1,1.5E1,5.711899E-2,1.4832367E1,1.2E1,1E0,6E0,1.1E1,2E0,7.861111E0,4.590176E-3,2.3E1,1.8E1,1.8857143E1,1.2488846E-2,3.6953642E0,1.5E1,1.8563561E-2,5E-1,2.56106E-3,1E0,4.4027777E0,1.1586613E1,7.5E1,4.9E1,-1.4184823E-2,3.5E1,2.2E1,4E0,6.234898E-1,1.9056175E-2,1.5E1,1.3875E1,9.375E0,-1.8133681E-2,-9.331349E-3,-1.2970896E-2,-1.8157132E-2,1.0834419E-2,-1.7901255E-2,-1.2874084E-2,-4.746443E-3,4.5931945E-3,-5.0705248E-3,1.697782E-2,5.953777E-3,1.4705459E-2,-5.6136516E-4,-1.1551225E-2,-4.5207012E-3,-1.7825752E-2,-9.852053E-4,-7.835423E-3,7.4347947E-3,8.095483E-5,1.4686014E-2,6.72582E-3,-5.819999E-3,1.3905502E-2,5.8281026E-3,-9.870779E-3,-1.748336E-2,-8.9856796E-4,6.8230284E-3,-2.7985189E-3,-1.1836622E-2,8.040858E-3,-1.3589287E-3,6.155539E-3,-2.841197E-3,1.12747075E-2,-4.9386304E-3,1.1757933E-2,-2.2808944E-3,2.010001E-2,5.6169154E-3,-1.1248224E-2,9.873855E-3,1.5145912E-2,2.5591997E-3,5.2669174E-3,-2.3816095E-3,1.683622E-2,-1.2891595E-3,1.5288323E-2,2.4493469E-2],"split_indices":[8,16,26,15,26,26,14,26,34,34,34,26,14,4,17,18,29,34,28,14,26,29,28,23,16,28,28,26,38,31,21,15,30,18,20,22,2,16,28,0,18,21,31,0,13,20,0,4,0,16,28,15,22,22,0,22,25,25,6,0,22,28,26,0,0,0,0,0,0,0,0,0,0,0,0,0,0,0,0,0,0,0,0,0,0,0,0,0,0,0,0,0,0,0,0,0,0,0,0,0,0,0,0,0,0,0,0,0,0,0,0,0,0,0,0],"split_type":[0,0,0,0,0,0,0,0,0,0,0,0,0,0,0,0,0,0,0,0,0,0,0,0,0,0,0,0,0,0,0,0,0,0,0,0,0,0,0,0,0,0,0,0,0,0,0,0,0,0,0,0,0,0,0,0,0,0,0,0,0,0,0,0,0,0,0,0,0,0,0,0,0,0,0,0,0,0,0,0,0,0,0,0,0,0,0,0,0,0,0,0,0,0,0,0,0,0,0,0,0,0,0,0,0,0,0,0,0,0,0,0,0,0,0],"sum_hessian":[1.245E3,7.12E2,5.33E2,4.47E2,2.65E2,3.27E2,2.06E2,3.76E2,7.1E1,2.24E2,4.1E1,6.9E1,2.58E2,1.05E2,1.01E2,2.37E2,1.39E2,2.2E1,4.9E1,1.9E1,2.05E2,1.7E1,2.4E1,1.2E1,5.7E1,2.01E2,5.7E1,5.8E1,4.7E1,9E0,9.2E1,1.88E2,4.9E1,1.1E1,1.28E2,1.8E1,4E0,5E0,4.4E1,3E0,1.6E1,5E1,1.55E2,3E0,1.4E1,1.7E1,7E0,1E1,2E0,1.4E1,4.3E1,9.2E1,1.09E2,5.5E1,2E0,3.2E1,2.6E1,1.7E1,3E1,3E0,6E0,4.6E1,4.6E1,9E0,1.79E2,3.4E1,1.5E1,9E0,2E0,4.8E1,8E1,9E0,9E0,2E0,2E0,2E0,3E0,1.6E1,2.8E1,1.3E1,3E0,4.5E1,5E0,1.49E2,6E0,7E0,7E0,8E0,9E0,4E0,6E0,6E0,8E0,3.2E1,1.1E1,1.1E1,8.1E1,9.8E1,1.1E1,5.3E1,2E0,2.8E1,4E0,2.3E1,3E0,9E0,8E0,1.8E1,1.2E1,4E0,2E0,4.4E1,2E0,8E0,3.8E1],"tree_param":{"num_deleted":"0","num_feature":"39","num_nodes":"115","size_leaf_vector":"1"}},{"base_weights":[9.298449E-4,-3.285364E-1,4.3917882E-1,-4.5257774E-1,1.4935817E-1,2.7847442E-1,8.873468E-1,-5.5907875E-1,-1.2989529E-2,-2.9223424E-4,7.2016454E-1,1.0595793E-1,7.6085895E-1,6.222116E-1,1.3828382E0,-6.68775E-1,-3.9408103E-1,-2.4179137E-1,2.809612E-1,-5.4482055E-1,4.7365118E-2,4.7716996E-1,1.0965395E0,-3.2415903E-1,2.3335125E-1,9.769062E-1,3.4952694E-1,-6.676058E-2,7.566369E-1,9.833253E-3,1.4059952E0,2.1430805E-1,-6.859329E-1,-6.34214E-2,-5.2170026E-1,-7.5560147E-1,-1.5852015E-1,-4.577345E-1,4.800735E-1,-0E0,-6.8420476E-1,3.3548886E-1,-6.5685935E-2,6.005023E-1,-0E0,4.1618994E-3,1.2491109E0,-1.09027624E-1,-5.90442E-1,2.678147E-1,-2.7156138E-1,4.9646315E-3,1.0884948E0,-0E0,7.263607E-1,-5.6565076E-1,1.9298004E-1,3.8568473E-1,9.501591E-1,1.0699907E-2,1.4444169E0,-5.8782496E-3,9.464582E-3,-9.103004E-3,-1.37069225E-2,-5.2398024E-3,4.237929E-3,-9.440124E-3,-2.2993812E-3,-0E0,-1.4782106E-2,6.133733E-3,-3.509474E-3,8.379771E-3,-1.1034425E-2,-5.135215E-3,8.727563E-3,-1.3565542E-2,-6.450216E-4,-1.0699532E-3,9.060031E-3,-4.020786E-3,2.1223675E-3,5.472081E-3,1.3366464E-2,5.9693507E-3,-5.9871795E-3,2.1314712E-2,6.955185E-3,-6.672414E-4,-1.4756387E-2,4.7997264E-3,-9.96436E-3,3.1980649E-3,9.165897E-3,6.398665E-3,-1.0000763E-2,5.8022244E-3,-1.22414855E-2,1.295695E-2,1.985818E-2,-6.200804E-3,4.6437536E-3,5.3625796E-3,1.5193446E-2,-3.073799E-3,-1.092334E-2,-2.6124667E-3,6.60007E-3,1.049924E-2,-1.1645656E-3,1.649418E-2,9.510885E-3,9.99518E-3,2.2090219E-2],"categories":[],"categories_nodes":[],"categories_segments":[],"categories_sizes":[],"default_left":[0,0,0,0,0,0,0,0,0,0,0,0,0,0,0,0,0,0,0,0,0,0,0,0,0,0,0,0,0,0,0,0,0,0,0,0,0,0,0,0,0,0,0,0,0,0,0,0,0,0,0,0,0,0,0,0,0,0,0,0,0,0,0,0,0,0,0,0,0,0,0,0,0,0,0,0,0,0,0,0,0,0,0,0,0,0,0,0,0,0,0,0,0,0,0,0,0,0,0,0,0,0,0,0,0,0,0,0,0,0,0,0,0,0,0],"id":11,"left_children":[1,3,5,7,9,11,13,15,17,19,21,23,25,27,29,31,33,35,37,39,41,43,45,47,49,51,53,55,57,-1,59,61,63,65,67,69,71,73,75,-1,77,79,81,83,85,-1,87,89,91,93,95,97,99,101,103,105,107,109,111,-1,113,-1,-1,-1,-1,-1,-1,-1,-1,-1,-1,-1,-1,-1,-1,-1,-1,-1,-1,-1,-1,-1,-1,-1,-1,-1,-1,-1,-1,-1,-1,-1,-1,-1,-1,-1,-1,-1,-1,-1,-1,-1,-1,-1,-1,-1,-1,-1,-1,-1,-1,-1,-1,-1,-1],"loss_changes":[1.7948007E2,4.2107185E1,3.8242203E1,2.6348915E1,1.2550333E1,3.2663136E1,1.792733E1,8.023254E0,7.463848E0,3.0610409E0,2.4491367E0,1.5950945E1,8.960705E0,8.626667E0,2.5289917E-1,4.2107925E0,7.6554317E0,2.5685043E0,7.2445354E0,6.911416E-1,3.526073E0,1.1493688E0,1.1875153E0,3.7423463E0,3.942708E0,7.263504E0,4.773825E0,2.0817347E0,5.3135033E0,0E0,6.144638E-1,1.5247681E0,4.4479904E0,5.14638E0,5.127388E0,1.4595947E0,2.3722367E0,3.1800263E0,3.333746E0,0E0,9.919648E-1,3.3798816E0,3.2745335E0,8.3629894E-1,7.9421633E-1,0E0,8.587532E-1,2.0439363E0,2.1068869E0,3.8394136E0,4.1543827E0,2.4878013E0,2.5186996E0,2.554737E0,1.6000013E0,2.0127523E-1,1.0038927E0,4.0624475E0,1.9504318E0,0E0,3.5903168E-1,0E0,0E0,0E0,0E0,0E0,0E0,0E0,0E0,0E0,0E0,0E0,0E0,0E0,0E0,0E0,0E0,0E0,0E0,0E0,0E0,0E0,0E0,0E0,0E0,0E0,0E0,0E0,0E0,0E0,0E0,0E0,0E0,0E0,0E0,0E0,0E0,0E0,0E0,0E0,0E0,0E0,0E0,0E0,0E0,0E0,0E0,0E0,0E0,0E0,0E0,0E0,0E0,0E0,0E0],"parents":[2147483647,0,0,1,1,2,2,3,3,4,4,5,5,6,6,7,7,8,8,9,9,10,10,11,11,12,12,13,13,14,14,15,15,16,16,17,17,18,18,19,19,20,20,21,21,22,22,23,23,24,24,25,25,26,26,27,27,28,28,30,30,31,31,32,32,33,33,34,34,35,35,36,36,37,37,38,38,40,40,41,41,42,42,43,43,44,44,46,46,47,47,48,48,49,49,50,50,51,51,52,52,53,53,54,54,55,55,56,56,57,57,58,58,60,60],"right_children":[2,4,6,8,10,12,14,16,18,20,22,24,26,28,30,32,34,36,38,40,42,44,46,48,50,52,54,56,58,-1,60,62,64,66,68,70,72,74,76,-1,78,80,82,84,86,-1,88,90,92,94,96,98,100,102,104,106,108,110,112,-1,114,-1,-1,-1,-1,-1,-1,-1,-1,-1,-1,-1,-1,-1,-1,-1,-1,-1,-1,-1,-1,-1,-1,-1,-1,-1,-1,-1,-1,-1,-1,-1,-1,-1,-1,-1,-1,-1,-1,-1,-1,-1,-1,-1,-1,-1,-1,-1,-1,-1,-1,-1,-1,-1,-1],"split_conditions":[1E0,9.426901E0,2.9630969E0,1.0840267E1,1.5375E1,8E0,1.0666667E1,6.75E0,-9.464913E0,5E0,6E0,3.25E0,4.3388373E-1,4.375E0,6.2777777E0,7.8063946E0,-1E0,3.5833333E0,5.3055553E0,5.875E0,8E0,3.5212685E1,5.75E0,4.125E0,9E-1,3E0,-1.2931575E1,3.5277777E0,1.8E1,9.833253E-3,1.1353093E1,2E0,7E0,2E0,8E0,1E0,3E0,1E0,1E0,-0E0,9.236111E0,3E0,3E0,1.3611111E1,1E0,4.1618994E-3,4.5E1,1.04E2,8.142858E0,-3.4846516E0,5E0,1E0,4E0,1E0,2E0,2E0,9.872352E0,1.6142857E1,6E0,1.0699907E-2,-4E1,-5.8782496E-3,9.464582E-3,-9.103004E-3,-1.37069225E-2,-5.2398024E-3,4.237929E-3,-9.440124E-3,-2.2993812E-3,-0E0,-1.4782106E-2,6.133733E-3,-3.509474E-3,8.379771E-3,-1.1034425E-2,-5.135215E-3,8.727563E-3,-1.3565542E-2,-6.450216E-4,-1.0699532E-3,9.060031E-3,-4.020786E-3,2.1223675E-3,5.472081E-3,1.3366464E-2,5.9693507E-3,-5.9871795E-3,2.1314712E-2,6.955185E-3,-6.672414E-4,-1.4756387E-2,4.7997264E-3,-9.96436E-3,3.1980649E-3,9.165897E-3,6.398665E-3,-1.0000763E-2,5.8022244E-3,-1.22414855E-2,1.295695E-2,1.985818E-2,-6.200804E-3,4.6437536E-3,5.3625796E-3,1.5193446E-2,-3.073799E-3,-1.092334E-2,-2.6124667E-3,6.60007E-3,1.049924E-2,-1.1645656E-3,1.649418E-2,9.510885E-3,9.99518E-3,2.2090219E-2],"split_indices":[8,38,38,15,26,26,26,26,38,32,23,26,5,26,28,30,25,26,28,26,2,38,34,28,38,23,38,28,34,0,15,23,21,23,23,23,21,23,23,0,28,21,19,28,6,0,23,32,31,38,23,7,0,19,19,19,30,31,0,0,24,0,0,0,0,0,0,0,0,0,0,0,0,0,0,0,0,0,0,0,0,0,0,0,0,0,0,0,0,0,0,0,0,0,0,0,0,0,0,0,0,0,0,0,0,0,0,0,0,0,0,0,0,0,0],"split_type":[0,0,0,0,0,0,0,0,0,0,0,0,0,0,0,0,0,0,0,0,0,0,0,0,0,0,0,0,0,0,0,0,0,0,0,0,0,0,0,0,0,0,0,0,0,0,0,0,0,0,0,0,0,0,0,0,0,0,0,0,0,0,0,0,0,0,0,0,0,0,0,0,0,0,0,0,0,0,0,0,0,0,0,0,0,0,0,0,0,0,0,0,0,0,0,0,0,0,0,0,0,0,0,0,0,0,0,0,0,0,0,0,0,0,0],"sum_hessian":[1.242E3,7.09E2,5.33E2,5.63E2,1.46E2,3.93E2,1.4E2,4.53E2,1.1E2,1.16E2,3E1,2.9E2,1.03E2,9.2E1,4.8E1,2.71E2,1.82E2,6.2E1,4.8E1,9E0,1.07E2,1.9E1,1.1E1,6.6E1,2.24E2,6.7E1,3.6E1,1.5E1,7.7E1,2E0,4.6E1,5E0,2.66E2,5.1E1,1.31E2,8E0,5.4E1,1E1,3.8E1,2E0,7E0,3E1,7.7E1,1.5E1,4E0,2E0,9E0,3.7E1,2.9E1,2.1E2,1.4E1,7E0,6E1,1.9E1,1.7E1,5E0,1E1,2.7E1,5E1,3E0,4.3E1,2E0,3E0,1.99E2,6.7E1,2.8E1,2.3E1,1.01E2,3E1,2E0,6E0,6E0,4.8E1,2E0,8E0,4E0,3.4E1,5E0,2E0,1.2E1,1.8E1,3.9E1,3.8E1,9E0,6E0,2E0,2E0,7E0,2E0,3.5E1,2E0,2E0,2.7E1,1.82E2,2.8E1,5E0,9E0,5E0,2E0,3.2E1,2.8E1,8E0,1.1E1,8E0,9E0,2E0,3E0,4E0,6E0,1.6E1,1.1E1,3.3E1,1.7E1,2E0,4.1E1],"tree_param":{"num_deleted":"0","num_feature":"39","num_nodes":"115","size_leaf_vector":"1"}},{"base_weights":[5.4375883E-3,-3.2968795E-1,4.4641468E-1,-4.5143652E-1,1.2733501E-1,1.5703537E-1,1.0598581E0,-5.527994E-1,-2.0077728E-2,-2.4911553E-2,4.5237416E-1,-3.0108473E-1,2.7244982E-1,7.0387757E-1,1.2200369E0,-6.633481E-1,-3.913489E-1,-2.6363546E-1,2.6203558E-1,-8.9221674E-1,1.4732847E-2,1.4434287E-1,8.1919473E-1,-9.867561E-2,-6.171925E-1,2.2415735E-1,7.3016363E-1,4.0467256E-1,1.1513859E0,9.6489376E-1,1.4597992E0,1.7289567E-1,-6.864315E-1,-5.190879E-1,-1.17787205E-1,-3.6491632E-1,4.292315E-1,5.022039E-1,-1.8862091E-1,-1.701185E-2,-6.778002E-3,-2.0627263E-1,2.0708299E-1,7.306473E-1,-8.229583E-2,1.8193668E-1,9.567984E-1,-5.390857E-1,3.1567883E-2,-8.351395E-1,-1.9903864E-1,2.4646886E-1,-6.7270434E-1,8.4911317E-1,1.6742298E-2,5.613363E-1,-6.561974E-1,1.3089176E0,5.650284E-1,7.753274E-1,1.2286028E0,5.6450117E-1,1.5358403E0,-6.0881693E-3,9.224301E-3,-9.303069E-3,-1.3934022E-2,-3.1787666E-5,-9.077627E-3,-3.913931E-3,7.3000505E-3,-3.0352683E-3,-9.234008E-3,-4.912627E-3,1.1149111E-2,-6.684873E-3,9.672152E-3,-1.1178806E-2,3.1979105E-3,2.820629E-4,-9.081935E-3,4.246973E-3,-6.89152E-3,3.4072234E-3,1.3259957E-2,1.5094595E-3,-1.0715145E-2,4.48133E-3,1.3096016E-4,1.7073011E-2,6.726713E-3,3.1578478E-3,-1.2894462E-2,-4.129202E-3,4.3944474E-3,-1.4032499E-2,-0E0,3.8515022E-3,-7.6046684E-3,7.629259E-3,2.7786882E-3,-1.9762716E-3,-1.6549064E-2,8.983465E-3,1.6884342E-2,3.4740355E-3,-2.7219933E-3,4.2015333E-3,1.3929157E-2,-1.54281715E-2,-1.9891595E-3,1.300973E-2,2.3750963E-2,1.1964487E-2,4.5581795E-3,-1.8146796E-3,1.2921944E-2,2.083391E-2,1.4388064E-2,4.1470197E-3,1.0129656E-2,2.535048E-2,1.886318E-2],"categories":[],"categories_nodes":[],"categories_segments":[],"categories_sizes":[],"default_left":[0,0,0,0,0,0,0,0,0,0,0,0,0,0,0,0,0,0,0,0,0,0,0,0,0,0,0,0,0,0,0,0,0,0,0,0,0,0,0,0,0,0,0,0,0,0,0,0,0,0,0,0,0,0,0,0,0,0,0,0,0,0,0,0,0,0,0,0,0,0,0,0,0,0,0,0,0,0,0,0,0,0,0,0,0,0,0,0,0,0,0,0,0,0,0,0,0,0,0,0,0,0,0,0,0,0,0,0,0,0,0,0,0,0,0,0,0,0,0,0,0,0,0],"id":12,"left_children":[1,3,5,7,9,11,13,15,17,19,21,23,25,27,29,31,33,35,37,39,41,43,45,47,49,51,53,55,57,59,61,63,65,67,69,71,73,75,77,-1,-1,79,81,83,85,87,89,91,93,95,97,99,101,103,105,107,109,111,113,115,117,119,121,-1,-1,-1,-1,-1,-1,-1,-1,-1,-1,-1,-1,-1,-1,-1,-1,-1,-1,-1,-1,-1,-1,-1,-1,-1,-1,-1,-1,-1,-1,-1,-1,-1,-1,-1,-1,-1,-1,-1,-1,-1,-1,-1,-1,-1,-1,-1,-1,-1,-1,-1,-1,-1,-1,-1,-1,-1,-1,-1,-1],"loss_changes":[1.8325606E2,3.924465E1,9.491675E1,2.4298103E1,7.3756933E0,1.9312038E1,9.2534485E0,7.8580475E0,7.3523293E0,3.5404015E0,5.2598305E0,4.6365137E0,6.3138027E0,6.986601E0,6.3623962E0,5.2293777E0,6.3848476E0,4.110116E0,5.420596E0,1.4382005E-1,4.1661654E0,3.5837827E0,1.7413397E0,2.6437898E0,2.4625368E0,5.3543215E0,2.2832794E0,5.7471247E0,1.5224686E0,2.3479538E0,3.5122223E0,2.0541368E0,3.8021164E0,5.5542984E0,5.2003207E0,1.9548202E0,1.9248669E0,4.5466976E0,4.0201545E0,0E0,0E0,4.123125E0,2.717329E0,4.2313004E-1,2.321182E0,7.4373126E-2,1.2792377E0,2.6459174E0,2.8886142E0,1.5371695E0,1.5513823E0,4.0669928E0,1.3795254E0,1.2026024E0,2.1516274E-1,2.8565664E0,7.510468E-1,1.1907921E0,1.578275E-1,2.8298702E0,2.3145676E-1,3.4602165E-2,1.1286011E0,0E0,0E0,0E0,0E0,0E0,0E0,0E0,0E0,0E0,0E0,0E0,0E0,0E0,0E0,0E0,0E0,0E0,0E0,0E0,0E0,0E0,0E0,0E0,0E0,0E0,0E0,0E0,0E0,0E0,0E0,0E0,0E0,0E0,0E0,0E0,0E0,0E0,0E0,0E0,0E0,0E0,0E0,0E0,0E0,0E0,0E0,0E0,0E0,0E0,0E0,0E0,0E0,0E0,0E0,0E0,0E0,0E0,0E0,0E0,0E0],"parents":[2147483647,0,0,1,1,2,2,3,3,4,4,5,5,6,6,7,7,8,8,9,9,10,10,11,11,12,12,13,13,14,14,15,15,16,16,17,17,18,18,19,19,20,20,21,21,22,22,23,23,24,24,25,25,26,26,27,27,28,28,29,29,30,30,31,31,32,32,33,33,34,34,35,35,36,36,37,37,38,38,41,41,42,42,43,43,44,44,45,45,46,46,47,47,48,48,49,49,50,50,51,51,52,52,53,53,54,54,55,55,56,56,57,57,58,58,59,59,60,60,61,61,62,62],"right_children":[2,4,6,8,10,12,14,16,18,20,22,24,26,28,30,32,34,36,38,40,42,44,46,48,50,52,54,56,58,60,62,64,66,68,70,72,74,76,78,-1,-1,80,82,84,86,88,90,92,94,96,98,100,102,104,106,108,110,112,114,116,118,120,122,-1,-1,-1,-1,-1,-1,-1,-1,-1,-1,-1,-1,-1,-1,-1,-1,-1,-1,-1,-1,-1,-1,-1,-1,-1,-1,-1,-1,-1,-1,-1,-1,-1,-1,-1,-1,-1,-1,-1,-1,-1,-1,-1,-1,-1,-1,-1,-1,-1,-1,-1,-1,-1,-1,-1,-1,-1,-1,-1,-1],"split_conditions":[2.0258278E1,9.426901E0,1.429902E1,1.0915004E1,1.3083333E1,3.375E0,-1.1280334E1,6.625E0,-9.464913E0,4.9668875E-1,6.714286E0,4.3194447E0,4.7E1,2.8357616E1,1.909454E1,7.8063946E0,5E0,1.2702381E1,9.5E0,-4.3388373E-1,1.4689371E1,2.5881904E-1,8.125828E0,2.6111112E0,5E0,4.6E1,2.6E1,2.7E1,4.3388373E-1,2.8357616E1,1.1353093E1,1E0,1E1,5.535714E0,1.05E1,2E1,1.2246469E-16,-5E-1,7.2777777E0,-1.701185E-2,-6.778002E-3,1.7E1,2.8E1,1E0,1.0857142E1,1.1353093E1,1.4428572E1,4.1596317E0,4.30032E0,9.464286E0,6E0,6.3771063E-1,-7E0,5E0,3E0,9.463601E0,3E0,2E0,5.7393956E0,-6E1,2.7E1,5E0,4.4639745E0,-6.0881693E-3,9.224301E-3,-9.303069E-3,-1.3934022E-2,-3.1787666E-5,-9.077627E-3,-3.913931E-3,7.3000505E-3,-3.0352683E-3,-9.234008E-3,-4.912627E-3,1.1149111E-2,-6.684873E-3,9.672152E-3,-1.1178806E-2,3.1979105E-3,2.820629E-4,-9.081935E-3,4.246973E-3,-6.89152E-3,3.4072234E-3,1.3259957E-2,1.5094595E-3,-1.0715145E-2,4.48133E-3,1.3096016E-4,1.7073011E-2,6.726713E-3,3.1578478E-3,-1.2894462E-2,-4.129202E-3,4.3944474E-3,-1.4032499E-2,-0E0,3.8515022E-3,-7.6046684E-3,7.629259E-3,2.7786882E-3,-1.9762716E-3,-1.6549064E-2,8.983465E-3,1.6884342E-2,3.4740355E-3,-2.7219933E-3,4.2015333E-3,1.3929157E-2,-1.54281715E-2,-1.9891595E-3,1.300973E-2,2.3750963E-2,1.1964487E-2,4.5581795E-3,-1.8146796E-3,1.2921944E-2,2.083391E-2,1.4388064E-2,4.1470197E-3,1.0129656E-2,2.535048E-2,1.886318E-2],"split_indices":[13,38,27,15,26,26,38,26,38,13,31,28,34,13,27,30,21,29,34,5,38,3,13,28,19,18,2,2,5,13,15,25,18,29,34,2,3,4,28,0,0,18,2,0,29,15,31,27,27,29,19,37,25,24,0,14,0,19,37,25,21,22,37,0,0,0,0,0,0,0,0,0,0,0,0,0,0,0,0,0,0,0,0,0,0,0,0,0,0,0,0,0,0,0,0,0,0,0,0,0,0,0,0,0,0,0,0,0,0,0,0,0,0,0,0,0,0,0,0,0,0,0,0],"split_type":[0,0,0,0,0,0,0,0,0,0,0,0,0,0,0,0,0,0,0,0,0,0,0,0,0,0,0,0,0,0,0,0,0,0,0,0,0,0,0,0,0,0,0,0,0,0,0,0,0,0,0,0,0,0,0,0,0,0,0,0,0,0,0,0,0,0,0,0,0,0,0,0,0,0,0,0,0,0,0,0,0,0,0,0,0,0,0,0,0,0,0,0,0,0,0,0,0,0,0,0,0,0,0,0,0,0,0,0,0,0,0,0,0,0,0,0,0,0,0,0,0,0,0],"sum_hessian":[1.239E3,7.04E2,5.35E2,5.56E2,1.48E2,3.64E2,1.71E2,4.5E2,1.06E2,1.01E2,4.7E1,7.3E1,2.91E2,5.4E1,1.17E2,2.66E2,1.84E2,5.7E1,4.9E1,4E0,9.7E1,2.6E1,2.1E1,4.5E1,2.8E1,2.64E2,2.7E1,3.3E1,2.1E1,5.8E1,5.9E1,7E0,2.59E2,1.25E2,5.9E1,5E1,7E0,3.2E1,1.7E1,2E0,2E0,4.5E1,5.2E1,7E0,1.9E1,4E0,1.7E1,1E1,3.5E1,1.8E1,1E1,2.58E2,6E0,2.3E1,4E0,2.9E1,4E0,1.6E1,5E0,3.5E1,2.3E1,5E0,5.4E1,3E0,4E0,2.05E2,5.4E1,1.8E1,1.07E2,4.8E1,1.1E1,3.1E1,1.9E1,2E0,5E0,4E0,2.8E1,7E0,1E1,2.9E1,1.6E1,4.7E1,5E0,2E0,5E0,1.5E1,4E0,2E0,2E0,1.2E1,5E0,3E0,7E0,1.6E1,1.9E1,1.6E1,2E0,4E0,6E0,4.8E1,2.1E2,3E0,3E0,1.3E1,1E1,2E0,2E0,1.7E1,1.2E1,2E0,2E0,7E0,9E0,2E0,3E0,3E0,3.2E1,1.3E1,1E1,2E0,3E0,3.3E1,2.1E1],"tree_param":{"num_deleted":"0","num_feature":"39","num_nodes":"123","size_leaf_vector":"1"}},{"base_weights":[-1.1688102E-2,-2.3620936E-1,5.662095E-1,-4.9224707E-1,7.0147954E-2,2.6438022E-1,8.400584E-1,-6.938625E-1,-3.9008176E-1,-4.1367304E-1,1.694909E-1,-5.2066803E-2,4.3558028E-1,5.5695605E-1,1.2266839E0,-8.927669E-1,-5.464968E-1,-4.2441425E-1,5.733909E-1,-1.7779842E-1,-7.367903E-1,-3.0825165E-1,2.5541455E-1,-3.2858828E-1,1.5162395E-1,1.7668143E-1,6.673089E-1,-1.11794226E-1,6.8374777E-1,5.6462055E-1,1.3088189E0,-8.145076E-1,-1.8195733E-2,-5.7769495E-1,1.0831394E-2,-5.2336645E-1,-1.4670424E-1,-2.8251108E-2,9.028167E-1,-5.9815806E-1,1.5477827E-1,-9.267677E-1,-5.0485617E-1,-8.207002E-1,1.818903E-2,2.078288E-1,8.4584403E-1,9.604616E-3,-4.2679873E-1,-2.1792029E-1,3.5577908E-1,5.508998E-2,8.958908E-1,3.6361337E-1,9.106194E-1,2.5908938E-1,-4.430167E-1,2.2384119E-1,8.767487E-1,1.0772562E-2,3.0310136E-1,4.308876E-3,1.336631E0,5.4534076E-4,-1.3452613E-2,-6.561888E-3,-1.2947239E-2,-8.426373E-3,-1.2465604E-3,4.6548955E-3,-3.846765E-3,3.0392772E-3,-4.1020573E-3,1.8015137E-2,5.642504E-3,-9.2698494E-4,-1.1862255E-2,3.8383817E-3,-1.0698611E-3,-8.400833E-3,-1.6049419E-2,4.033881E-6,-1.0530893E-2,7.2214715E-3,-1.4657783E-2,2.2409784E-3,-7.656735E-3,-5.225113E-3,3.690157E-3,3.0658976E-3,1.6264927E-2,-7.891091E-3,3.0202302E-3,-1.8760635E-2,5.0395564E-4,7.3448233E-3,-6.3996026E-3,-1.138236E-2,2.1583019E-3,1.66065E-2,3.4807846E-3,9.006386E-3,-1.2974143E-3,5.103467E-3,1.7485173E-2,8.04655E-3,-5.390173E-4,1.1713026E-3,-1.2572861E-2,4.847302E-3,-1.2208691E-2,9.4498675E-3,1.6302453E-2,6.284462E-4,7.2552906E-3,1.7194986E-2,2.200766E-2],"categories":[],"categories_nodes":[],"categories_segments":[],"categories_sizes":[],"default_left":[0,0,0,0,0,0,0,0,0,0,0,0,0,0,0,0,0,0,0,0,0,0,0,0,0,0,0,0,0,0,0,0,0,0,0,0,0,0,0,0,0,0,0,0,0,0,0,0,0,0,0,0,0,0,0,0,0,0,0,0,0,0,0,0,0,0,0,0,0,0,0,0,0,0,0,0,0,0,0,0,0,0,0,0,0,0,0,0,0,0,0,0,0,0,0,0,0,0,0,0,0,0,0,0,0,0,0,0,0,0,0,0,0,0,0,0,0],"id":13,"left_children":[1,3,5,7,9,11,13,15,17,19,21,23,25,27,29,31,33,35,37,39,41,43,45,47,49,51,53,55,57,59,61,63,-1,65,-1,67,69,71,73,75,77,79,81,83,85,87,89,-1,91,93,95,97,99,101,103,105,107,109,111,-1,113,-1,115,-1,-1,-1,-1,-1,-1,-1,-1,-1,-1,-1,-1,-1,-1,-1,-1,-1,-1,-1,-1,-1,-1,-1,-1,-1,-1,-1,-1,-1,-1,-1,-1,-1,-1,-1,-1,-1,-1,-1,-1,-1,-1,-1,-1,-1,-1,-1,-1,-1,-1,-1,-1,-1,-1],"loss_changes":[1.6347087E2,7.122179E1,2.8969826E1,9.996231E0,1.9897398E1,9.15913E0,1.976358E1,4.5351715E0,1.1013565E1,5.261939E0,1.4137184E1,3.3850887E0,6.4682255E0,9.181961E0,3.7511826E0,1.1466217E0,4.0205994E0,8.680489E0,2.3357394E0,5.8702354E0,9.943123E-1,8.830002E0,8.04941E0,2.5524368E0,2.6484892E0,4.5188828E0,4.019539E0,2.2163742E0,7.879841E0,2.2158217E-1,1.6730194E0,4.0874596E0,0E0,3.5290947E0,0E0,3.908043E0,4.275418E0,2.860093E-1,8.730736E-1,1.8446193E0,5.5561286E-1,4.3279934E-1,1.4795632E0,4.437187E0,2.2743542E0,5.78193E0,3.1137342E0,0E0,1.5346279E0,3.328919E0,2.4644115E0,3.3122654E0,8.5615635E-1,2.876326E0,4.309105E0,7.301679E-1,2.027034E0,2.9411697E0,2.8636017E0,0E0,1.7585176E-1,0E0,6.8042755E-1,0E0,0E0,0E0,0E0,0E0,0E0,0E0,0E0,0E0,0E0,0E0,0E0,0E0,0E0,0E0,0E0,0E0,0E0,0E0,0E0,0E0,0E0,0E0,0E0,0E0,0E0,0E0,0E0,0E0,0E0,0E0,0E0,0E0,0E0,0E0,0E0,0E0,0E0,0E0,0E0,0E0,0E0,0E0,0E0,0E0,0E0,0E0,0E0,0E0,0E0,0E0,0E0,0E0,0E0],"parents":[2147483647,0,0,1,1,2,2,3,3,4,4,5,5,6,6,7,7,8,8,9,9,10,10,11,11,12,12,13,13,14,14,15,15,16,16,17,17,18,18,19,19,20,20,21,21,22,22,23,23,24,24,25,25,26,26,27,27,28,28,29,29,30,30,31,31,33,33,35,35,36,36,37,37,38,38,39,39,40,40,41,41,42,42,43,43,44,44,45,45,46,46,48,48,49,49,50,50,51,51,52,52,53,53,54,54,55,55,56,56,57,57,58,58,60,60,62,62],"right_children":[2,4,6,8,10,12,14,16,18,20,22,24,26,28,30,32,34,36,38,40,42,44,46,48,50,52,54,56,58,60,62,64,-1,66,-1,68,70,72,74,76,78,80,82,84,86,88,90,-1,92,94,96,98,100,102,104,106,108,110,112,-1,114,-1,116,-1,-1,-1,-1,-1,-1,-1,-1,-1,-1,-1,-1,-1,-1,-1,-1,-1,-1,-1,-1,-1,-1,-1,-1,-1,-1,-1,-1,-1,-1,-1,-1,-1,-1,-1,-1,-1,-1,-1,-1,-1,-1,-1,-1,-1,-1,-1,-1,-1,-1,-1,-1,-1,-1],"split_conditions":[1.7E1,9.571428E0,1.525E1,4.4166665E0,5.5298924E0,7.2916665E0,9.583333E0,1.4E1,3.4436376E0,4.125E0,1E0,7.144097E0,-1.8369701E-16,4.375E0,1.0802223E1,7E0,3.75E1,8E0,1E0,7.6525277E-1,5.6E1,1.206191E1,4.2E1,1.8E1,6.4126983E0,1.7041666E1,5E-1,1.59880905E1,2.5881904E-1,6E0,6.1277013E0,-2.4E1,-1.8195733E-2,7E0,1.0831394E-2,1.3611111E1,0E0,2E0,3.6E1,2E0,1E0,7.0710677E-1,2.0142857E1,1.0285714E1,1.0166667E1,4.25E0,4E0,9.604616E-3,1.1898042E1,2E1,6.75E0,7.0710677E-1,7E0,1.944868E1,1.271418E1,2.5E1,-2.5E1,4.3388373E-1,2.525E1,1.0772562E-2,1E0,4.308876E-3,2.85E1,5.4534076E-4,-1.3452613E-2,-6.561888E-3,-1.2947239E-2,-8.426373E-3,-1.2465604E-3,4.6548955E-3,-3.846765E-3,3.0392772E-3,-4.1020573E-3,1.8015137E-2,5.642504E-3,-9.2698494E-4,-1.1862255E-2,3.8383817E-3,-1.0698611E-3,-8.400833E-3,-1.6049419E-2,4.033881E-6,-1.0530893E-2,7.2214715E-3,-1.4657783E-2,2.2409784E-3,-7.656735E-3,-5.225113E-3,3.690157E-3,3.0658976E-3,1.6264927E-2,-7.891091E-3,3.0202302E-3,-1.8760635E-2,5.0395564E-4,7.3448233E-3,-6.3996026E-3,-1.138236E-2,2.1583019E-3,1.66065E-2,3.4807846E-3,9.006386E-3,-1.2974143E-3,5.103467E-3,1.7485173E-2,8.04655E-3,-5.390173E-4,1.1713026E-3,-1.2572861E-2,4.847302E-3,-1.2208691E-2,9.4498675E-3,1.6302453E-2,6.284462E-4,7.2552906E-3,1.7194986E-2,2.200766E-2],"split_indices":[16,31,34,26,27,26,26,32,37,28,17,15,4,26,15,21,34,16,1,37,32,15,34,16,14,26,3,33,4,21,14,25,0,31,0,28,3,21,32,22,3,3,31,31,26,34,16,0,27,16,26,3,22,30,27,16,25,5,34,0,3,0,34,0,0,0,0,0,0,0,0,0,0,0,0,0,0,0,0,0,0,0,0,0,0,0,0,0,0,0,0,0,0,0,0,0,0,0,0,0,0,0,0,0,0,0,0,0,0,0,0,0,0,0,0,0,0],"split_type":[0,0,0,0,0,0,0,0,0,0,0,0,0,0,0,0,0,0,0,0,0,0,0,0,0,0,0,0,0,0,0,0,0,0,0,0,0,0,0,0,0,0,0,0,0,0,0,0,0,0,0,0,0,0,0,0,0,0,0,0,0,0,0,0,0,0,0,0,0,0,0,0,0,0,0,0,0,0,0,0,0,0,0,0,0,0,0,0,0,0,0,0,0,0,0,0,0,0,0,0,0,0,0,0,0,0,0,0,0,0,0,0,0,0,0,0,0],"sum_hessian":[1.259E3,9.07E2,3.52E2,4.94E2,4.13E2,1.68E2,1.84E2,1.65E2,3.29E2,7E1,3.43E2,5.9E1,1.09E2,1.07E2,7.7E1,6.9E1,9.6E1,3.18E2,1.1E1,4.1E1,2.9E1,5.2E1,2.91E2,2.5E1,3.4E1,5.2E1,5.7E1,1.7E1,9E1,9E0,6.8E1,5.7E1,1.2E1,9.4E1,2E0,2.34E2,8.4E1,4E0,7E0,1.8E1,2.3E1,1.5E1,1.4E1,2E1,3.2E1,2.7E2,2.1E1,2E0,2.3E1,1.2E1,2.2E1,4.5E1,7E0,2.6E1,3.1E1,8E0,9E0,2.7E1,6.3E1,5E0,4E0,2E0,6.6E1,5E0,5.2E1,6.4E1,3E1,2.15E2,1.9E1,1.6E1,6.8E1,2E0,2E0,4E0,3E0,5E0,1.3E1,1.6E1,7E0,5E0,1E1,4E0,1E1,2E0,1.8E1,2.6E1,6E0,1.7E1,2.53E2,6E0,1.5E1,2E1,3E0,2E0,1E1,1.9E1,3E0,4E0,4.1E1,5E0,2E0,1.7E1,9E0,1E1,2.1E1,4E0,4E0,4E0,5E0,2.5E1,2E0,3E1,3.3E1,2E0,2E0,2.9E1,3.7E1],"tree_param":{"num_deleted":"0","num_feature":"39","num_nodes":"117","size_leaf_vector":"1"}},{"base_weights":[2.4068055E-3,-3.1834534E-1,4.415705E-1,-3.9259252E-1,3.1002218E-1,2.1428177E-1,1.0798249E0,-4.7419995E-1,-8.813474E-2,-1.6731553E-1,5.216874E-1,-3.3282804E-1,3.3887893E-1,2.3577657E-1,1.1905044E0,-5.630602E-1,-4.3016065E-2,-3.626318E-1,4.980651E-2,-1.8718196E-2,8.377148E-2,1.8366353E-1,8.238243E-1,-1.1628253E-1,-6.3746434E-1,1.0812113E-2,4.14716E-1,6.9299364E-1,-2.2942738E-1,8.585518E-1,1.4036694E0,-6.652991E-1,-4.3115664E-1,-3.3755037E-1,1.9020206E-1,2.6889685E-1,-4.8224607E-1,3.0534342E-1,-8.505595E-2,3.4503844E-1,-3.5059154E-1,5.1896435E-1,-1.2989885E-1,-4.8017395E-3,9.670968E-1,-5.38364E-1,2.3430173E-1,-4.217532E-1,-1.0029534E0,-3.4477833E-1,2.9343122E-1,1.4915658E-2,3.735346E-1,9.473963E-1,-1.3057777E-3,-1.040578E-2,7.779684E-2,5.1136386E-1,1.0914668E0,9.158699E-3,1.4698836E0,-8.272673E-3,-1.196896E-2,-2.7967019E-3,-9.16083E-3,-6.411821E-3,1.5338455E-2,4.249435E-3,-1.1106192E-2,-9.582351E-3,9.99214E-3,1.5734932E-3,-8.594069E-3,-5.503066E-3,6.614778E-3,-9.8698195E-3,1.404084E-4,-3.2933487E-3,9.442914E-3,5.7257237E-3,-9.910155E-3,1.0845176E-2,-6.327411E-3,7.3643737E-3,-6.3362313E-3,5.649195E-3,-6.078842E-3,1.5283833E-2,4.619683E-3,-1.2994914E-2,-4.740769E-3,-2.6864307E-3,4.5240913E-3,-9.708999E-3,3.030487E-3,-1.7679533E-2,-7.0339013E-3,8.442607E-3,-7.121213E-3,9.0559566E-4,8.383592E-3,4.341925E-3,1.0239944E-2,6.999594E-3,1.6471589E-2,-2.0392828E-3,5.722292E-3,1.765193E-2,2.8797828E-3,1.8822815E-2,4.2756125E-3,2.323264E-2,1.5308454E-2],"categories":[],"categories_nodes":[],"categories_segments":[],"categories_sizes":[],"default_left":[0,0,0,0,0,0,0,0,0,0,0,0,0,0,0,0,0,0,0,0,0,0,0,0,0,0,0,0,0,0,0,0,0,0,0,0,0,0,0,0,0,0,0,0,0,0,0,0,0,0,0,0,0,0,0,0,0,0,0,0,0,0,0,0,0,0,0,0,0,0,0,0,0,0,0,0,0,0,0,0,0,0,0,0,0,0,0,0,0,0,0,0,0,0,0,0,0,0,0,0,0,0,0,0,0,0,0,0,0,0,0,0,0],"id":14,"left_children":[1,3,5,7,9,11,13,15,17,19,21,23,25,27,29,31,33,35,37,-1,39,41,43,45,47,49,51,53,55,57,59,61,63,65,67,69,71,73,75,77,79,81,83,85,87,89,91,93,95,97,99,-1,101,103,-1,-1,105,107,109,-1,111,-1,-1,-1,-1,-1,-1,-1,-1,-1,-1,-1,-1,-1,-1,-1,-1,-1,-1,-1,-1,-1,-1,-1,-1,-1,-1,-1,-1,-1,-1,-1,-1,-1,-1,-1,-1,-1,-1,-1,-1,-1,-1,-1,-1,-1,-1,-1,-1,-1,-1,-1,-1],"loss_changes":[1.7368973E2,3.330632E1,7.532752E1,1.5790329E1,7.6895638E0,2.6267424E1,1.2540039E1,1.9210938E1,5.155307E0,6.486391E0,5.23577E0,4.6419344E0,7.776245E0,3.6122115E0,7.810974E0,5.4185333E0,5.9812174E0,3.5125675E0,3.1428413E0,0E0,2.2731576E0,2.7341716E0,3.3152199E0,6.367215E0,2.043048E0,6.0275683E0,5.821125E0,1.7710409E0,1.2702336E0,3.5627556E0,3.254486E0,3.236435E0,7.9664536E0,4.8965836E0,4.283786E0,2.9185503E0,2.103551E0,2.95678E0,3.2541184E0,2.0973723E0,1.8431253E0,2.5671282E0,2.5520155E0,7.650711E-1,5.7948685E-1,1.2257342E0,6.869842E-1,2.8307505E0,6.2637424E-1,3.255205E0,2.0248466E0,0E0,6.0510445E0,1.3650799E-1,0E0,0E0,3.952317E-1,4.1753473E0,3.4993248E0,0E0,1.4404755E0,0E0,0E0,0E0,0E0,0E0,0E0,0E0,0E0,0E0,0E0,0E0,0E0,0E0,0E0,0E0,0E0,0E0,0E0,0E0,0E0,0E0,0E0,0E0,0E0,0E0,0E0,0E0,0E0,0E0,0E0,0E0,0E0,0E0,0E0,0E0,0E0,0E0,0E0,0E0,0E0,0E0,0E0,0E0,0E0,0E0,0E0,0E0,0E0,0E0,0E0,0E0,0E0],"parents":[2147483647,0,0,1,1,2,2,3,3,4,4,5,5,6,6,7,7,8,8,9,9,10,10,11,11,12,12,13,13,14,14,15,15,16,16,17,17,18,18,20,20,21,21,22,22,23,23,24,24,25,25,26,26,27,27,28,28,29,29,30,30,31,31,32,32,33,33,34,34,35,35,36,36,37,37,38,38,39,39,40,40,41,41,42,42,43,43,44,44,45,45,46,46,47,47,48,48,49,49,50,50,52,52,53,53,56,56,57,57,58,58,60,60],"right_children":[2,4,6,8,10,12,14,16,18,20,22,24,26,28,30,32,34,36,38,-1,40,42,44,46,48,50,52,54,56,58,60,62,64,66,68,70,72,74,76,78,80,82,84,86,88,90,92,94,96,98,100,-1,102,104,-1,-1,106,108,110,-1,112,-1,-1,-1,-1,-1,-1,-1,-1,-1,-1,-1,-1,-1,-1,-1,-1,-1,-1,-1,-1,-1,-1,-1,-1,-1,-1,-1,-1,-1,-1,-1,-1,-1,-1,-1,-1,-1,-1,-1,-1,-1,-1,-1,-1,-1,-1,-1,-1,-1,-1,-1,-1],"split_conditions":[2.0258278E1,1.4541667E1,1.5628615E1,6.7E0,-2.610739E-4,3.375E0,6.1277013E0,1.17710085E1,8.125828E0,1.1433365E0,8.125828E0,4.3194447E0,-2.0038122E1,-9E0,1.9339079E1,6.125E0,-3E0,-7E0,1.1E1,-1.8718196E-2,4.3388373E-1,3.2968066E0,1.4916667E1,-7E0,0E0,3.200582E1,-4.4E1,1.7416666E1,-7E0,4E0,1.1353093E1,2.5881904E-1,0E0,6.612373E-1,1.8541327E1,-2.2252093E-1,4.7777777E0,6.6833124E0,6.4126983E0,-6.780843E0,1E0,3E1,1.7394577E1,2E0,3.1E1,1.3434143E1,-1.8E1,6.4583335E0,6.6E1,6.1277013E0,2E0,1.4915658E-2,8.055555E0,-3E0,-1.3057777E-3,-1.040578E-2,4E0,-5E0,6E1,9.158699E-3,8E1,-8.272673E-3,-1.196896E-2,-2.7967019E-3,-9.16083E-3,-6.411821E-3,1.5338455E-2,4.249435E-3,-1.1106192E-2,-9.582351E-3,9.99214E-3,1.5734932E-3,-8.594069E-3,-5.503066E-3,6.614778E-3,-9.8698195E-3,1.404084E-4,-3.2933487E-3,9.442914E-3,5.7257237E-3,-9.910155E-3,1.0845176E-2,-6.327411E-3,7.3643737E-3,-6.3362313E-3,5.649195E-3,-6.078842E-3,1.5283833E-2,4.619683E-3,-1.2994914E-2,-4.740769E-3,-2.6864307E-3,4.5240913E-3,-9.708999E-3,3.030487E-3,-1.7679533E-2,-7.0339013E-3,8.442607E-3,-7.121213E-3,9.0559566E-4,8.383592E-3,4.341925E-3,1.0239944E-2,6.999594E-3,1.6471589E-2,-2.0392828E-3,5.722292E-3,1.765193E-2,2.8797828E-3,1.8822815E-2,4.2756125E-3,2.323264E-2,1.5308454E-2],"split_indices":[13,26,27,38,38,26,14,15,13,15,13,28,38,24,27,26,24,24,17,0,5,15,26,25,24,15,25,26,25,0,15,3,25,38,27,6,28,27,14,38,24,17,30,24,2,33,24,28,32,14,19,0,28,25,0,0,0,24,17,0,20,0,0,0,0,0,0,0,0,0,0,0,0,0,0,0,0,0,0,0,0,0,0,0,0,0,0,0,0,0,0,0,0,0,0,0,0,0,0,0,0,0,0,0,0,0,0,0,0,0,0,0,0],"split_type":[0,0,0,0,0,0,0,0,0,0,0,0,0,0,0,0,0,0,0,0,0,0,0,0,0,0,0,0,0,0,0,0,0,0,0,0,0,0,0,0,0,0,0,0,0,0,0,0,0,0,0,0,0,0,0,0,0,0,0,0,0,0,0,0,0,0,0,0,0,0,0,0,0,0,0,0,0,0,0,0,0,0,0,0,0,0,0,0,0,0,0,0,0,0,0,0,0,0,0,0,0,0,0,0,0,0,0,0,0,0,0,0,0],"sum_hessian":[1.232E3,7.12E2,5.2E2,6.37E2,7.5E1,3.84E2,1.36E2,5.02E2,1.35E2,2.3E1,5.2E1,7.1E1,3.13E2,1.6E1,1.2E2,4.16E2,8.6E1,4.5E1,9E1,4E0,1.9E1,2.5E1,2.7E1,4.2E1,2.9E1,5.9E1,2.54E2,8E0,8E0,4.8E1,7.2E1,2.33E2,1.83E2,3.8E1,4.8E1,7E0,3.8E1,3.1E1,5.9E1,1.2E1,7E0,1.2E1,1.3E1,4E0,2.3E1,1.9E1,2.3E1,1.9E1,1E1,2.6E1,3.3E1,1.6E1,2.38E2,6E0,2E0,3E0,5E0,2E1,2.8E1,6E0,6.6E1,1.27E2,1.06E2,7.8E1,1.05E2,3.6E1,2E0,4.4E1,4E0,2E0,5E0,5E0,3.3E1,5E0,2.6E1,8E0,5.1E1,4E0,8E0,2E0,5E0,1E1,2E0,4E0,9E0,2E0,2E0,2.1E1,2E0,7E0,1.2E1,3E0,2E1,1.4E1,5E0,7E0,3E0,3E0,2.3E1,1.8E1,1.5E1,1.88E2,5E1,2E0,4E0,3E0,2E0,6E0,1.4E1,2.3E1,5E0,5.5E1,1.1E1],"tree_param":{"num_deleted":"0","num_feature":"39","num_nodes":"113","size_leaf_vector":"1"}},{"base_weights":[-5.8465097E-3,-3.1210926E-1,4.2061272E-1,-3.7919503E-1,2.9867738E-1,1.8426476E-1,1.0237384E0,-4.6902475E-1,-6.3308865E-2,-8.1691466E-2,6.3694715E-1,-3.7812272E-1,2.998369E-1,3.2841364E-1,1.1311289E0,-5.5930984E-1,-6.0906E-2,-4.5145822E-1,6.473734E-2,-8.92733E-1,6.920935E-2,1.135208E-1,8.4243554E-1,-7.777421E-1,-2.6872617E-1,7.7211805E-2,3.9477152E-1,-5.8211225E-1,5.6981725E-1,5.181808E-1,1.2040116E0,-6.2824637E-1,-4.3993118E-1,-7.611045E-1,3.6460496E-2,-6.386415E-1,1.08885884E-1,-4.3053055E-1,1.4530577E-1,-4.010553E-3,-1.7964024E-2,-4.5880663E-1,3.5431516E-1,9.775786E-3,-5.2376086E-1,2.528631E-1,9.656102E-1,-1.5439821E-2,-3.0914292E-1,-3.8855907E-1,4.7004662E-2,1.7000242E-1,-3.9797914E-1,3.3508867E-1,7.57477E-1,-1.299722E-2,-2.41981E-3,7.096027E-1,2.9248554E-1,1.6524835E-2,3.1372407E-1,8.712734E-1,1.440436E0,-9.984216E-3,-4.763887E-3,-7.595135E-3,1.4306722E-3,-1.3404713E-2,-1.2783019E-3,-1.0131916E-2,1.460488E-3,-1.3124716E-2,2.767965E-3,6.8482067E-3,-8.070601E-3,-1.0413371E-2,1.5440078E-3,-6.095822E-3,3.084518E-3,6.025283E-4,-8.766866E-3,7.1289493E-3,-8.1477715E-3,-0E0,-1.2434636E-2,-1.7694618E-3,1.1121728E-2,1.6861575E-2,7.219611E-3,1.3785427E-3,-1.24316765E-2,-2.5014724E-3,-9.137068E-3,3.2077213E-3,-1.1649201E-2,4.471688E-3,-7.573685E-4,-1.3922688E-3,-1.6837569E-2,1.1282773E-2,4.3727015E-3,2.641291E-3,1.341336E-2,1.2723666E-2,1.1445077E-3,5.5594295E-3,1.0999615E-3,-7.952485E-4,9.114041E-3,4.2903973E-3,1.5566981E-2,4.6517355E-3,2.2371154E-2],"categories":[],"categories_nodes":[],"categories_segments":[],"categories_sizes":[],"default_left":[0,0,0,0,0,0,0,0,0,0,0,0,0,0,0,0,0,0,0,0,0,0,0,0,0,0,0,0,0,0,0,0,0,0,0,0,0,0,0,0,0,0,0,0,0,0,0,0,0,0,0,0,0,0,0,0,0,0,0,0,0,0,0,0,0,0,0,0,0,0,0,0,0,0,0,0,0,0,0,0,0,0,0,0,0,0,0,0,0,0,0,0,0,0,0,0,0,0,0,0,0,0,0,0,0,0,0,0,0,0,0,0,0],"id":15,"left_children":[1,3,5,7,9,11,13,15,17,19,21,23,25,27,29,31,33,35,37,39,41,43,45,47,49,51,53,55,57,59,61,63,65,67,69,71,73,75,77,-1,-1,79,81,-1,83,85,87,-1,89,91,93,95,97,99,101,-1,-1,103,105,-1,107,109,111,-1,-1,-1,-1,-1,-1,-1,-1,-1,-1,-1,-1,-1,-1,-1,-1,-1,-1,-1,-1,-1,-1,-1,-1,-1,-1,-1,-1,-1,-1,-1,-1,-1,-1,-1,-1,-1,-1,-1,-1,-1,-1,-1,-1,-1,-1,-1,-1,-1,-1],"loss_changes":[1.6390866E2,2.9992966E1,7.461145E1,1.8644104E1,9.382157E0,2.4588882E1,1.0755295E1,1.8836067E1,7.315153E0,4.2944145E0,4.04537E0,2.662922E0,6.586931E0,4.6712217E0,5.297806E0,3.2606964E0,6.424552E0,3.889635E0,4.426294E0,8.152447E-1,4.5169992E0,4.121385E0,1.8140545E0,1.3654861E0,1.974709E0,4.1892424E0,4.5700417E0,4.1718972E-1,4.8577595E-1,1.4862058E0,8.185654E0,2.915596E0,5.5728035E0,9.431915E-1,3.5811663E0,5.465329E0,2.255401E0,2.245702E0,3.2102745E0,0E0,0E0,6.9726944E-1,2.2424252E0,0E0,8.9641285E-1,1.0714008E0,1.376297E0,0E0,1.2211144E0,1.7450309E0,2.0474217E0,2.2655811E0,3.3141444E0,3.2823524E0,2.2926102E0,0E0,0E0,8.433342E-1,7.5528204E-2,0E0,1.283274E0,4.512123E0,3.452591E0,0E0,0E0,0E0,0E0,0E0,0E0,0E0,0E0,0E0,0E0,0E0,0E0,0E0,0E0,0E0,0E0,0E0,0E0,0E0,0E0,0E0,0E0,0E0,0E0,0E0,0E0,0E0,0E0,0E0,0E0,0E0,0E0,0E0,0E0,0E0,0E0,0E0,0E0,0E0,0E0,0E0,0E0,0E0,0E0,0E0,0E0,0E0,0E0,0E0,0E0],"parents":[2147483647,0,0,1,1,2,2,3,3,4,4,5,5,6,6,7,7,8,8,9,9,10,10,11,11,12,12,13,13,14,14,15,15,16,16,17,17,18,18,19,19,20,20,21,21,22,22,23,23,24,24,25,25,26,26,27,27,28,28,29,